//Numpy array shape [480, 9]
//Min -1.061435103416
//Max 1.522231578827
//Number of zeros 0

#ifndef W11_H_
#define W11_H_

#ifndef __SYNTHESIS__
dense_weight_t w11[4320];
#else
dense_weight_t w11[4320] = {-0.0078029050, -0.0659141019, -0.0140753035, -0.0190006886, -0.1180917844, 0.0094716102, -0.0186784994, -0.1016129255, -0.0049150935, -0.0122626657, -0.0629425496, 0.0983990580, -0.1512266397, -0.2043538243, -0.0334698036, 0.0922990069, -0.1101481393, -0.0673716441, -0.0771416053, 0.0032617233, 0.0495406650, -0.1028650776, -0.0477675386, -0.0193115082, -0.0482652262, -0.1315184832, -0.0699981302, -0.1195698977, 0.1130461842, -0.0342451483, 0.0346537009, 0.0728204399, 0.0868374705, 0.0610228628, 0.0827953443, 0.0180995539, 0.0800535828, 0.0918644443, -0.0937363207, 0.0356344134, -0.0161198955, 0.0419173762, -0.0623963587, -0.1056275293, -0.1917271316, -0.1281479150, -0.2045985609, -0.0545910038, 0.0865814760, -0.0392646790, 0.0570110269, 0.0034748542, -0.1547271013, 0.0465500131, 0.0511153005, -0.0033279953, -0.0987872183, 0.0476409122, -0.0413608626, -0.1769936681, 0.0853448734, -0.0172672421, -0.1140206307, -0.1211138815, -0.1143992543, 0.0745184571, -0.1074367613, 0.0965635404, 0.0904475152, 0.0854712203, 0.0538548715, 0.0627296790, -0.1392893940, 0.0316045284, 0.0070355469, -0.0897400305, -0.1392729729, -0.1348181516, -0.1272840947, 0.0737726316, 0.0053108055, -0.0557098240, -0.0496418886, -0.0128208688, -0.0098710507, 0.0601871796, -0.0165898353, -0.1185462549, 0.0766469166, 0.0419392213, 0.0293378904, -0.1613867879, 0.0773080960, -0.0527981780, -0.1773218513, -0.0369650237, -0.0786457732, -0.1027299687, -0.0163919628, -0.0013186857, -0.1142743081, -0.1057989672, 0.0584903285, 0.0910234153, -0.0505146310, -0.1037878767, -0.0609972328, 0.0375774913, 0.0518963635, -0.0358959027, -0.0133854309, 0.0821026936, -0.0911201686, -0.0507118143, -0.0783014223, -0.0436549224, -0.1061215773, 0.0645316243, -0.0200306457, -0.1195999607, 0.0855653435, 0.0036925997, -0.0301655848, -0.1965502203, -0.0340469070, -0.0223007593, -0.0373721533, 0.0704201460, -0.0808764026, 0.0944748595, -0.0603993200, -0.0489209853, 0.0496004969, -0.0718790665, -0.0508583374, -0.0842574462, -0.0061628530, 0.0686572716, 0.0802913532, 0.0668272451, -0.0396289341, -0.1892243177, -0.0755211413, -0.0550637729, -0.0201055929, -0.0459438264, -0.0340863243, -0.0608137883, -0.0967325345, 0.0197859630, 0.0142619126, -0.0433978364, -0.1542365700, -0.0690634623, -0.0841920450, -0.0595268086, -0.0750939399, -0.1026215851, 0.0033204330, -0.0594896488, -0.1069358215, 0.0615720078, 0.0637798235, 0.0017700493, -0.1246852949, 0.0852137953, 0.0491726622, 0.0834615678, -0.1304535568, -0.1136513650, -0.1357161999, -0.0912728608, -0.1507467628, -0.1346826106, -0.1526339650, -0.1094225198, -0.0559190921, -0.0542851985, 0.0475280657, 0.0375908650, -0.0674612150, -0.0527365580, 0.0604903586, -0.0034389491, -0.0653609633, -0.0219982695, -0.0605069436, -0.1438776851, 0.0258046258, -0.1138865501, -0.1755185723, 0.0049049393, -0.0233072247, -0.0212842114, -0.0445927195, -0.0402260274, 0.0415266901, -0.0546740443, -0.0535137616, -0.1176151708, 0.0184285417, -0.0375047773, -0.0318595842, -0.0800646022, 0.0120032448, -0.1177829728, -0.0820069462, -0.0189104881, 0.0715301037, 0.0053873858, 0.1195354983, 0.1153715551, -0.1137802228, 0.0521180630, 0.0755084753, -0.1087272242, -0.0696846992, -0.0477128588, 0.0334051140, 0.0368124545, 0.0844082311, 0.0530185252, -0.0507241823, -0.0742804781, -0.1017694399, -0.1058782563, 0.1199095175, 0.0178013034, -0.0292545613, -0.0027171331, 0.0447650626, 0.0054395446, -0.0251200311, -0.0909415856, -0.0709019229, 0.0556503013, 0.0139171388, -0.0158511419, -0.1091718450, 0.1067620441, -0.2218492031, -0.0561101362, 0.0311558638, -0.2152179480, -0.1354291886, 0.0923433527, -0.0689158738, -0.0979001820, -0.0186198726, -0.1382862180, -0.0341794901, -0.0314950012, -0.0885551646, 0.0670667663, -0.2008310705, -0.1694800258, 0.0227532517, 0.0335612036, -0.0012891884, -0.0906614438, -0.0696612373, 0.0671212897, 0.0704084560, 0.1170620248, -0.1875082999, -0.0695715249, -0.1534158587, 0.0202388205, -0.0677498206, -0.0844769478, -0.0959855616, 0.0770352557, -0.1822647899, 0.0466236696, 0.0242319200, -0.0438968949, 0.0462806113, -0.0565161519, -0.0945600718, -0.0614576377, -0.2197801471, -0.0779864714, 0.0845031962, -0.1461186111, -0.0475302450, -0.0399081074, -0.1616096497, -0.1649037600, 0.0148885529, 0.0790840015, 0.0285900440, 0.0317081138, -0.0231429748, -0.0117190676, -0.0944816545, 0.0540318117, -0.1883706599, -0.0908032954, 0.0861770436, -0.0320892893, 0.1025744379, 0.1277168393, 0.0183055028, -0.0592111349, 0.0689994395, 0.0051698140, 0.0762748644, 0.0531619713, -0.1322318465, -0.0257455241, 0.0372989066, 0.0698247328, -0.0499354675, -0.1193002686, -0.0953938439, -0.1395025998, -0.0468635559, 0.0263269320, 0.0460524522, 0.0675373599, -0.1038835496, -0.0906597897, 0.0293875914, -0.1006624028, -0.0931631997, 0.0793998316, -0.0023366276, 0.0269150864, -0.0170942061, 0.0296304710, 0.0039980649, -0.0151126329, -0.0320141241, -0.1213937625, -0.1323899031, 0.0015953376, 0.0995265469, -0.2065806538, 0.0126098683, -0.0398439914, -0.0455168001, -0.0315382406, -0.1081761643, 0.0793451741, -0.0632455423, -0.1434284300, -0.0150286956, -0.1054671854, -0.0039209477, 0.0681519732, -0.1220859662, -0.0020793471, 0.0516821556, -0.0739569664, -0.0359777994, -0.0378051326, 0.0185924284, 0.0046453369, 0.0238226671, 0.0912157223, -0.0544939227, -0.0535547584, -0.0560695454, 0.0300135501, -0.0703014508, 0.0246118493, -0.1240799129, -0.1093612686, 0.0215884820, -0.0317401104, 0.0117174936, 0.0686130747, -0.2254545838, -0.0283985697, 0.0971672758, -0.0694893897, -0.0156778395, -0.0054440079, -0.0237204991, 0.0712530985, 0.0628836900, 0.1252177656, -0.1155101284, -0.0693758801, -0.0273078997, -0.0283886623, -0.0081697935, 0.0529884733, -0.0001372349, 0.0703618303, -0.1119667813, -0.1078445762, -0.0313206390, -0.0373570919, -0.0464436188, 0.0343437642, -0.0190383028, -0.1118394211, -0.1034926549, 0.0427072272, 0.0645135269, -0.2040728033, 0.0491832867, -0.0985015631, -0.0781993270, 0.0546713732, 0.0235086735, 0.0036904383, -0.0775860175, 0.0065968134, 0.0013451888, -0.0580574460, 0.0070242835, 0.0537918694, -0.1370792091, 0.0316346772, -0.0576152653, -0.0283194352, 0.0710200742, -0.0922711343, -0.0120594343, -0.0092093768, 0.0465603136, -0.0244825799, -0.0643195063, 0.0175373089, -0.0644868687, -0.0585457534, -0.1510303766, 0.0790027454, -0.0522170253, -0.0001614624, 0.0660942271, -0.1323294491, 0.0395870470, -0.0062188813, -0.0105678607, -0.0602857843, 0.1052040011, 0.0581968836, -0.1030953676, -0.0499962792, 0.0800857246, -0.0439641736, 0.0153561747, -0.0101348488, 0.0370032750, -0.0582205802, -0.0092149181, -0.1049382389, -0.0844871774, 0.0142264012, 0.0396868326, -0.0778613687, -0.0744728744, 0.0419303067, -0.0941705480, -0.0389262922, -0.1120957956, -0.0403180383, -0.0842116550, 0.0199453626, -0.0341653526, -0.1113273203, -0.0219939649, -0.1208298057, 0.0940591320, 0.0706688985, -0.0148689533, -0.1153459623, -0.1135900691, 0.0568120293, 0.0518798083, -0.0595586896, 0.0629538670, 0.0636348501, 0.0470669344, -0.1189403087, -0.1062000021, -0.0657275543, -0.1016441733, 0.0419507995, 0.0472406149, -0.0860011205, -0.1057368815, 0.1066101119, -0.0265356340, 0.0778401121, -0.0695457906, 0.0065172240, -0.0969994143, -0.0222243331, -0.0703132749, -0.1114742011, -0.0159181394, -0.0192341655, -0.0334056243, -0.0024726251, 0.0233024061, -0.0969343111, -0.0196869988, 0.0966265872, -0.0953389630, 0.0544774495, 0.0854772031, -0.0704267770, 0.0340442620, -0.1175685450, 0.0293895230, -0.0299257636, 0.0837892517, -0.0420750156, 0.0400832184, 0.0093735456, 0.0404384062, -0.0726333633, 0.0444444194, -0.0277760550, 0.0125394464, -0.0115971304, -0.0381021649, 0.0505743250, 0.0095135616, -0.0731364340, 0.0328995399, -0.0207495876, 0.0138066057, 0.0517028347, -0.1197637096, -0.0707600489, -0.1026516184, -0.0724410042, 0.0213628933, 0.0664857998, 0.0471511111, -0.0646935850, -0.1112296432, -0.0163581353, 0.0313520320, -0.0755545720, -0.0437425375, -0.0912919641, -0.0104272123, -0.0567185469, 0.0883651078, 0.0258516893, -0.1044683531, 0.1104201749, 0.0009277165, 0.0073137358, -0.1086321622, -0.0924869925, -0.0313307680, 0.0722497329, -0.0905234143, -0.0061416738, -0.0209441409, 0.0734609365, 0.0505440421, -0.1054310873, -0.0306746680, -0.1678599417, -0.0556705780, -0.0533754714, -0.0119633060, -0.0160674751, 0.0665533021, -0.0806976110, 0.0868129432, -0.0843332484, 0.0385677516, -0.0865801498, 0.0961325690, 0.0246953741, 0.0432405882, 0.0709847212, -0.0799069256, 0.0504598096, 0.1067687348, 0.0299262181, 0.0813180134, -0.0910559893, -0.0938243195, 0.0682464913, 0.0851853564, -0.1055646017, -0.0491424128, 0.0275562163, -0.0171457436, -0.0796205252, 0.0037638596, -0.0486946739, 0.0102312863, -0.1233152300, -0.0401120931, -0.1045272797, -0.0624308810, 0.0287203267, 0.0985990688, 0.0684243888, 0.0809982494, -0.0163041838, 0.0103810383, -0.0848751590, -0.0540036857, 0.0653326735, 0.0141325435, -0.0823373422, -0.0286005381, -0.0189457238, -0.0632063523, 0.0354030803, 0.0409907326, 0.0900852010, -0.0689415485, -0.0500463694, -0.0789229572, 0.0429567397, -0.0776369721, 0.0146685047, 0.0889254510, -0.1133646965, 0.0189292990, 0.0962949023, -0.0897500962, -0.0102428347, -0.0625773370, -0.0972312167, -0.0228928123, -0.1031733379, 0.0623596981, -0.0170623288, 0.0465065874, 0.0437713005, 0.0746104047, -0.0484685041, -0.1007183790, 0.0730729476, 0.0816169307, -0.0672889501, -0.0101138502, 0.0664081499, -0.0453686789, 0.0264014825, 0.0234342441, -0.0148508623, 0.0020818114, 0.0849216059, -0.0961601138, 0.0549973957, -0.0709318668, -0.0349585228, -0.0862840563, -0.0546838827, 0.0074556489, 0.0147418156, -0.0110091493, -0.0680120289, 0.0831553489, 0.0001161739, 0.0097991442, -0.0946992412, -0.1036484987, -0.0178266503, -0.0489162765, 0.0259404294, -0.0217751972, -0.0291807204, 0.0034500659, -0.0815542266, -0.1059167758, -0.0089498656, -0.0136567373, -0.1010477617, 0.0645660385, 0.0793013498, 0.0046455190, -0.0300717801, -0.0783844441, -0.0509294495, -0.0337503701, 0.0111648291, -0.0093133859, 0.0489439070, -0.0733497143, -0.1206014454, 0.0202839542, 0.0914954469, -0.0293870941, -0.0974952802, 0.0863773748, 0.0135112563, -0.0010137863, -0.0086251274, -0.0070726424, 0.0160136204, 0.0259218998, -0.0814953372, -0.0543483235, -0.0850130245, 0.0452774540, -0.0024990812, -0.1494077742, 0.0425927676, 0.0079341652, -0.0464153737, -0.0397060215, -0.0952152312, -0.0171476528, 0.0878063515, 0.0604648665, -0.0486848019, 0.0623576120, -0.0789195448, -0.0220519193, -0.0763099119, 0.0845822617, 0.0137130925, 0.0520208851, -0.0890434235, -0.0354044661, -0.0295611955, -0.0246052407, -0.0624317415, -0.0526867844, -0.0556276366, 0.0666534677, -0.0933018550, -0.0288560987, 0.0909171030, 0.0065059592, -0.1235795021, 0.1094802842, -0.1020021737, -0.1296410859, -0.0686464757, 0.0152957803, 0.0851508901, -0.0241303965, 0.0077790469, 0.0784712508, -0.0878503993, 0.0153784230, -0.1768991649, 0.0779295415, -0.0100189447, -0.0642255619, -0.0509320572, 0.0801387206, -0.0120714437, 0.0959288701, 0.0959254727, -0.0829293951, 0.0054661776, 0.0332179964, -0.0649038330, 0.0096165529, 0.0610417351, -0.1044246703, 0.0459579937, 0.0501511209, -0.1321635097, 0.0904062614, -0.0355046690, -0.0878652632, -0.0573785082, -0.0109948255, -0.1193726286, 0.0369383320, 0.0438125506, -0.0737285167, -0.0431406647, 0.1028029695, -0.0704205856, -0.0750974268, -0.1592133939, 0.0803158879, -0.0374562442, -0.0740649477, 0.0517299958, -0.0175000448, -0.0877608508, 0.0836783051, -0.0970946997, 0.0213427860, 0.0468463264, 0.0206512082, 0.0790344924, 0.0428293124, -0.0477145612, 0.0404431596, -0.0376909673, -0.1075530127, -0.1161839589, 0.0137672424, 0.0607471243, -0.0710384399, -0.0078167543, -0.0242900383, -0.0820331499, 0.0528721176, -0.0193013251, 0.0843730196, -0.0552234352, 0.0596918240, 0.0224016979, -0.0647895113, -0.0955856591, 0.0362486467, -0.0258231461, -0.0318372361, 0.0203262456, -0.1134244427, -0.0658644065, -0.0393779948, -0.1027434394, -0.0471290499, 0.0593057014, -0.0608202033, 0.0416100100, -0.0261173416, 0.0168135390, 0.0792555884, -0.1057825759, 0.0207712259, 0.0122896871, -0.0777497143, -0.1047444046, -0.0743481666, -0.0381377935, 0.0295115765, -0.0565134324, 0.0193265509, 0.0635194406, 0.0808344260, -0.0078083873, 0.0944069400, -0.0313841552, 0.0076570287, -0.1030394137, -0.0959220380, 0.0094618052, -0.0855079442, -0.1114156693, 0.0509131737, 0.0557962246, 0.0776675642, 0.0884390697, 0.0298568010, -0.0136766490, 0.0494569056, 0.0896899253, 0.0060571223, -0.0031516105, -0.0509243533, 0.0835530460, -0.1018171012, -0.0938063264, 0.0188852102, 0.0474824943, -0.0914973468, -0.0406247526, 0.0224928260, -0.0845962092, -0.0861247331, 0.0758402273, 0.0032779053, -0.0509056039, 0.0191279277, 0.0255345181, -0.0097681060, 0.0490368046, -0.1180861220, 0.0189229026, -0.1479533613, -0.0537086092, 0.0317434818, 0.0701095983, -0.1042433754, 0.0792699531, -0.0374975465, -0.1053915545, -0.0629516616, 0.0642503500, -0.0289113633, 0.1029573306, -0.0585743599, 0.0308160447, -0.0336904153, 0.0545231178, 0.0657597184, -0.0444410257, -0.0617647432, 0.0005048215, 0.0152119137, 0.0505152158, -0.0697848946, -0.0025087520, 0.0005318597, 0.1062541977, 0.0923382863, -0.0661926493, 0.0947958454, -0.1148857847, -0.0355309583, 0.0726201907, -0.1550135463, 0.0223782454, 0.0955944881, -0.0384347513, -0.1106854454, 0.1018170938, 0.0839746594, -0.0195465535, 0.0062784888, 0.0520385951, 0.0629690960, 0.0943361893, -0.0608509704, -0.1085735634, 0.0566278920, -0.0850806087, -0.0607836470, 0.0551497862, 0.0348611251, -0.0606296062, 0.0116059240, 0.0930123329, 0.0826012865, -0.0793884546, -0.0344167873, 0.0673097745, -0.0569307879, -0.0847642794, -0.0241949111, -0.1208591238, -0.0185128842, -0.0684557408, -0.1394325495, -0.0993760377, 0.0433192328, -0.0851262882, 0.0435432307, -0.0962411910, 0.0738592893, 0.0847779661, -0.1181369796, -0.0603435002, -0.0957023576, 0.0633259490, 0.0380662754, 0.0756216943, -0.0396084078, -0.0646971315, 0.0242489465, -0.0719600245, -0.0295059085, -0.0729527622, 0.0193102099, -0.1185566634, -0.2085539699, 0.0300341770, 0.0814697742, -0.0317521580, 0.1194777787, -0.0766673759, 0.2171262652, -0.1443853378, 0.0250691809, -0.1584472060, -0.1526205391, 0.0448410362, 0.0458163843, -0.1258732826, 0.0688268021, 0.0216927156, 0.0795898736, 0.1668554246, 0.3221012354, -0.1266406476, -0.0107467258, 0.1117718145, -0.0148784136, -0.1598570496, 0.1214386374, 0.0369215459, -0.1474858075, -0.0377303474, 0.0295203645, 0.0801175982, 0.0522370525, 0.0337841436, 0.0300967824, -0.0615675375, -0.0256191641, -0.1095852852, -0.0909717232, 0.0916549191, -0.0313378870, 0.0782501101, 0.0618161783, -0.0135473907, -0.1008989289, 0.4713206291, -0.0512282215, -0.1659654975, -0.0597249083, 0.0591635406, 0.2215117812, 0.0969651416, 0.0810099542, -0.0242077336, 0.1807961762, 0.0678585246, -0.0623284765, -0.1889253408, -0.0149651710, -0.0904805660, 0.1137148365, 0.0368615948, 0.0931860507, 0.0193504058, -0.1625259668, 0.1599701792, -0.0193325169, 0.0729109272, 0.0929852873, -0.0721499100, -0.0213619266, -0.0017066301, -0.0194358137, -0.1119369194, -0.2155068517, -0.1100367755, -0.2527752221, -0.1913301796, -0.0285985600, 0.0305566676, -0.1481480449, -0.0531389676, -0.0596240871, -0.0291273352, 0.1583818793, -0.1822612882, 0.0854521692, 0.0153463362, -0.0282137636, -0.1646964699, -0.0168609433, 0.0321127847, -0.0698644444, -0.0317066796, 0.0773758367, 0.0300991293, -0.2071684599, -0.0297413804, -0.0746271014, -0.0042167548, -0.1793004423, 0.0823990330, 0.0313974358, -0.0032357038, -0.0339814834, -0.0134478109, 0.0910177082, -0.1307894737, -0.0627240166, 0.3846198320, -0.0952426270, -0.0536738783, -0.1671142280, 0.0068133273, -0.0173332337, -0.7088981271, 0.2895419896, 0.2099319398, 0.1409336329, 0.0289096590, 0.0231455378, -0.1860685647, 0.0399996080, -0.0530312322, -0.2119688541, 0.1965009123, 0.0737407655, -0.0472005904, -0.5006473660, 0.0465187356, 0.3858619928, -0.0917185396, 0.1644992828, 0.0649352074, 0.0658432171, 0.0790974498, -0.0067197061, 0.0767630115, 0.2431066334, 0.0514393002, 0.0896075293, -0.0617095083, 0.1117329672, 0.3261000812, 0.2086566985, -0.0342984237, 0.2072409987, 0.2201360613, -0.4281142354, 0.0561860986, 0.0179072730, 0.0752927288, 0.0264015682, 0.1787420809, 0.0154547160, 0.0933902115, 0.3929114044, 0.3906165063, -0.0030485913, 0.0864820033, 0.1075422466, 0.1500635445, 0.0656830221, 0.0220399033, -0.1223982722, -0.0241020024, -0.0537363477, 0.0924750417, -0.0627471954, 0.0318984687, -0.0312275048, 0.1448787898, 0.4835136831, -0.1361486465, 0.0994632095, 0.0899958536, 0.3735423088, -0.0219814461, -0.2062916905, -0.0015796403, -0.0715322196, 0.1110585779, -0.0037091651, 0.0605536141, 0.1236982644, 0.0895769298, 0.0901594758, 0.1100435182, 0.0616356060, -0.1032254845, 0.1022049934, -0.0949952900, 0.0884393156, -0.1482478976, 0.2286274284, -0.0102301957, 0.0986004472, -0.0526663288, -0.0707433969, 0.1159753650, 0.0024495160, 0.5929429531, -0.0601442046, -0.1040245146, -0.2683527172, -0.1517677754, 0.1973439157, 0.1367354840, -0.3530685902, 0.0776108801, -0.1435839087, -0.0802973360, -0.1047567427, -0.0063841986, -0.1369062513, -0.0013095767, -0.0844028890, -0.1222762689, -0.1869517416, -0.1995095313, -0.1827553958, -0.0203860775, 0.0437755026, 0.0376309529, -0.1913610697, -0.1503393799, -0.2063710093, -0.0655906275, 0.0928674564, 0.0856028870, -0.1083704084, -0.0382398218, 0.0357750095, -0.5880162716, 0.1380158365, 0.1561381519, -0.1201517805, -0.1631813496, -0.0782435760, -0.2674441040, 0.3329083622, 0.0434612259, 0.3285814226, 0.3165982962, -0.1667347550, 0.0033800148, 0.2727409005, -0.0345468484, 0.0066041495, -0.1569410115, 0.0660504699, 0.2603432834, -0.0393837541, -0.0390423909, -0.0204332452, 0.0091079986, -0.3206676245, 0.1131963134, 0.1391305774, 0.0466909111, 0.0607729070, 0.0003280995, 0.0781427994, 0.1061688364, 0.0701366365, -0.5403833389, -0.1330394000, -0.3243484497, -0.1961579174, 0.0694920495, 0.0079240305, 0.0832321122, -0.0897976011, -0.0414051153, 0.0474836156, -0.6540958285, 0.0246299393, 0.2639271915, -0.4094170630, -0.0288173351, -0.0534049012, -0.1458169371, 0.1154831350, -0.2508727014, -0.2611557841, -0.3472230732, -0.0907932967, -0.0914964378, 0.1575745195, 0.1423562914, 0.3197100461, -0.0886929110, -0.1984171420, -0.0708079785, -0.0716335252, -0.0165518168, -0.0297790784, 0.2069294304, 0.4488660991, -0.2526619136, -0.0551820099, 0.0764591172, -0.0408095382, -0.1961184889, 0.0859531909, -0.1037985831, 0.0688495338, 0.3143448830, -0.0052921046, -0.1814872175, 0.3312275410, 0.0769245252, 0.0012051237, 0.3157575727, -0.1205800325, 0.1898263246, 0.0812547877, 0.3819778562, -0.0345720761, 0.1076341048, 0.0642653927, 0.0717609525, -0.1791677922, -0.0960277021, -0.1720556170, 0.0455472581, 0.0890934542, 0.0764413700, -0.0642924905, -0.0561663099, -0.1697634459, 0.0585079379, -0.0812030733, -0.0373379812, 0.1631456912, -0.0382668674, 0.2007909864, 0.0084374649, 0.0353962407, 0.1466393024, -0.0007290011, -0.0433991924, 0.0007621106, 0.0028017906, 0.0326720178, -0.0550736822, 0.1040500477, -0.0024949969, 0.1500055045, 0.0473211259, -0.0143039636, -0.0512722544, -0.0594325028, 0.0683598742, -0.1754304618, -0.0316896290, -0.2751561701, 0.0582124107, -0.0239387844, -0.0842129588, -0.0263747554, 0.0252359919, -0.2029356211, -0.0794623792, -0.1680199802, -0.0220058002, -0.1917489171, 0.0244020019, -0.0941654295, -0.0483060405, 0.0297216754, 0.0957191885, -0.0029544279, 0.0751985088, 0.2083820701, 0.0997434631, -0.0566824637, -0.1407076120, -0.0387155823, -0.0280091334, 0.0522334240, -0.0076471828, 0.0483710021, 0.0987016782, 0.1729416847, -0.0042089308, -0.0795059428, -0.0666539147, -0.2702754736, -0.0401304662, 0.1156771407, 0.0877197906, -0.2008706331, -0.2379077226, -0.1133864224, -0.0407516211, 0.0408897325, -0.1088569760, -0.0031101138, -0.0156168975, -0.0681302771, -0.0559325404, 0.1340271086, 0.0646537021, 0.1946247816, 0.0443388186, -0.0355630964, 0.0499798022, 0.0957989767, -0.1220308542, 0.0784613341, 0.0191721469, -0.0973368436, 0.0644868761, -0.0336037204, -0.0185123924, -0.0529120043, 0.0209522564, -0.0111918952, -0.0540333427, -0.2869440913, 0.0504493192, 0.0665187985, -0.0230448321, -0.0924527943, -0.0107039772, -0.3029548824, -0.0670509040, -0.0536722168, -0.0981175452, 0.0779413953, -0.0004587141, -0.0623661876, 0.0834627897, 0.2067768276, 0.0695278645, 0.0614237003, 0.0286698490, 0.0035128605, 0.0118904300, 0.0546488315, 0.0193161387, -0.0986576155, -0.1226576716, -0.0664038882, -0.0682217479, -0.0204173531, -0.0468011200, -0.1513166130, 0.1049923599, -0.2837834358, -0.1008731723, -0.1336327791, -0.0710081905, 0.0637072772, 0.0068102069, 0.0191142466, -0.0259199329, -0.3195559680, -0.1331985146, -0.1210120618, -0.0419634059, -0.2223705500, 0.0249133613, -0.0054540951, -0.0884863883, 0.0829190388, 0.2025685012, 0.0148503883, 0.0834280103, 0.0341282412, 0.0339193419, -0.0129361488, 0.0583219081, 0.0381845310, -0.2195232958, 0.1465673000, 0.0535884872, 0.0819250718, -0.0106930304, 0.0472231507, -0.0406120382, -0.1487132013, 0.0445871316, 0.0609414279, 0.0281157847, -0.0448392481, -0.0091254003, 0.2503236830, -0.0224229768, 0.0358803719, -0.1504884958, -0.2001498491, 0.0305832103, -0.1146074980, -0.0372875482, -0.1465387046, 0.1064797118, -0.0779346675, 0.1001433283, 0.1834817678, -0.1366713345, -0.0951515660, -0.0473977625, 0.0142374141, -0.0027598345, 0.1373017728, -0.0953043252, -0.1156871393, -0.1326989681, 0.0748004466, -0.0347491987, -0.0482695810, 0.0134097002, -0.0108753555, -0.0041029281, -0.0576005131, -0.0370043218, 0.0139743220, -0.0898789689, -0.0262052305, 0.0918926373, 0.0781516954, -0.0751755163, -0.1396060437, 0.3134605885, -0.1030073166, -0.0340201743, -0.0753874332, 0.0124821952, 0.1770181507, 0.2512994111, 0.0197593160, -0.0604407899, 0.1789227575, -0.0859939456, -0.0861758515, 0.0063225608, 0.0091087529, -0.2183742821, -0.0633368567, -0.0153000942, 0.0500928089, -0.0155245010, -0.0486438796, 0.1175466925, -0.1766615659, -0.0457594357, -0.0520917475, -0.0234581903, 0.0024377697, -0.0083855139, -0.0153383054, 0.0933818743, -0.0713668987, 0.0841574445, -0.0319240913, -0.1534852535, 0.0213577505, -0.0545669347, -0.1164943352, 0.1181881577, -0.0803176239, -0.0756575838, 0.1256684214, -0.0052938997, -0.0118471636, -0.0739562660, 0.0850127935, -0.0632150695, -0.0699157342, -0.0801047683, -0.1194362342, -0.1294207424, -0.0247132778, 0.0078295693, -0.0805761442, -0.1168476194, 0.0619587675, 0.0498785004, -0.1159965023, -0.0096737742, -0.0285423547, 0.0956159532, 0.0133595364, 0.0857979581, -0.0320102908, 0.0602562651, -0.0032685208, 0.2082028687, 0.0083314162, -0.0987186953, -0.1692395657, -0.0806871802, -0.0514667816, -0.5365977287, 0.2492215931, 0.2423066199, -0.0085143046, -0.0012155776, 0.0491422191, -0.1988451481, -0.0277425293, -0.1502426714, -0.1886937767, 0.0641181245, -0.0475824401, -0.0551799797, -0.3375832438, 0.0503363349, 0.3945429027, 0.0066097612, 0.2101613879, -0.0261168778, -0.0591889136, 0.0895816833, -0.0706040561, -0.0503335707, 0.1488107294, 0.0182275325, -0.0926033109, -0.0049429545, 0.1401404440, 0.2689331472, 0.2605876327, -0.0371273868, 0.2262365818, 0.2053011954, -0.3430278003, 0.0308092553, 0.0338814855, 0.0125655839, -0.0730561316, 0.1280949861, 0.0968257189, 0.1834129095, 0.3631987870, 0.3190380633, 0.0286970809, 0.0349102393, 0.2254993320, 0.0978268012, 0.0319222845, 0.0256265625, -0.0816213712, -0.1056391150, 0.0612187311, -0.0076384763, 0.0232629664, -0.0095498562, -0.0052811615, 0.1014857292, 0.4987728596, -0.2122367918, 0.0753791183, 0.1028033793, 0.4167345166, -0.0032613627, -0.1474417746, 0.0438354425, 0.0055956468, -0.0344811678, -0.0367915891, -0.0510849059, 0.0118562989, 0.0506789796, 0.0475125499, 0.0391101725, 0.1691297740, -0.1110771149, -0.0554831140, -0.0065120910, 0.0190765094, -0.1524225026, 0.2147346437, -0.0166481193, -0.0565384850, 0.0760258064, -0.0888407156, -0.0475709103, 0.0130385039, 0.5456643105, -0.0324299522, -0.1076912284, -0.2988443077, -0.0750812814, 0.1339271218, 0.1292916238, -0.3205332756, -0.0325214267, -0.1307739317, -0.0247001294, -0.1064492390, -0.0585829727, -0.1197803542, 0.1177678704, -0.0862234980, -0.0836179480, -0.2207069993, -0.1056042314, -0.2330313027, 0.0617410764, 0.0448310785, 0.0712911710, -0.2137190700, -0.1569905281, -0.3118434548, -0.0117711760, 0.1156725734, -0.0795270726, 0.1149712801, 0.0590768568, -0.0328259021, -0.4006772041, 0.1125651672, 0.1233810335, -0.1518683285, -0.1705930978, -0.1092931256, -0.1743127257, 0.2638487220, -0.0411954671, 0.1072046682, 0.2303162217, -0.1505888402, 0.0997430980, 0.2759195268, 0.0905358195, 0.0177579559, -0.1069149747, 0.0262457617, 0.1849783510, -0.1555733085, -0.0409999080, -0.0865006149, -0.0008968300, -0.2295345664, 0.1075316817, 0.1830803007, -0.0575987659, 0.0941678435, -0.0579966642, 0.0314389728, 0.1066708341, -0.0370958410, -0.4013843238, -0.1076920107, -0.1655573100, -0.2553223670, 0.0308401138, -0.0490537472, -0.0308907647, 0.1105581447, 0.0086106388, -0.1498632878, -0.7421322465, -0.1148233116, 0.2509556115, -0.4797394872, 0.0602810420, -0.0531027764, 0.0368494503, 0.1594112813, -0.1124910638, -0.1615471840, -0.3619206250, 0.0530890748, 0.0793489590, 0.2321472019, 0.1410163045, 0.2811253667, 0.0958976969, -0.0390273444, 0.0774055347, -0.0846923292, 0.0008695103, -0.0585057586, 0.1344452500, 0.2454617023, -0.2501398325, 0.0497158766, 0.0095677171, 0.0886800960, -0.0153364250, 0.1180861071, -0.0323349200, -0.0447776727, 0.3119005263, -0.1031545028, -0.1153408810, 0.2163092494, 0.1030231714, 0.0313959420, 0.2098793536, -0.0171659831, 0.0786208212, -0.0150538096, 0.3699768484, -0.0151567301, -0.0875282064, 0.0837997571, 0.0816896334, -0.1073071435, -0.0681467429, -0.1587778330, -0.0828123912, -0.0530813225, 0.0291013028, -0.0034348844, 0.0960454345, 0.0366605669, 0.0121661946, -0.0175993945, -0.0505530089, 0.1152974516, 0.0991138816, 0.0944168568, -0.1055752262, 0.1275635362, 0.1125883609, -0.0576362796, -0.0587093681, 0.0662453622, -0.0050498154, -0.0679614469, -0.2150158584, -0.0114853000, 0.0070829364, 0.0978141725, 0.1143325046, 0.0020664625, -0.0112840505, -0.1230561808, -0.0578665547, -0.1444308758, -0.0104592852, -0.0883018002, -0.0212127734, -0.0912117362, 0.1170818433, -0.0138929700, 0.0975895673, -0.1403417289, -0.1948105395, 0.0569570661, 0.0078997854, 0.0399376452, -0.0785083175, -0.0568426698, 0.0243832469, -0.0903345048, 0.0915862545, 0.0936255008, 0.0447906628, 0.0627761185, -0.0924635530, -0.0932162777, -0.1127975658, -0.0084417192, 0.0768365264, 0.1176366061, 0.1720371246, -0.1193040386, -0.0423835218, 0.0925031304, 0.0785256848, -0.0538425632, 0.0847383365, -0.3058788776, -0.0866553336, 0.0010899014, -0.0348002389, -0.1709086895, -0.1637582481, -0.1839930117, -0.0258343872, 0.0141822565, -0.1309175789, 0.0483071730, -0.1045062467, -0.1732879281, 0.1255592853, 0.0843293518, -0.0339038000, -0.0160085019, 0.0749986619, -0.0460084341, -0.0233892556, 0.0286619719, -0.0947078168, 0.0286834352, 0.0651560724, -0.0953109786, -0.0128060961, 0.0366762839, -0.0056158919, -0.2131906897, -0.1013344228, -0.1103667915, 0.0536241718, -0.2045852840, 0.1154856682, 0.0542352386, 0.0990109667, -0.0943106636, 0.0205912981, -0.0591639578, -0.0004102189, -0.0449182652, -0.0963595957, 0.0254745092, -0.1125005782, 0.0383518450, -0.0547304377, 0.0897319764, 0.0474677011, 0.0204637069, -0.1041957289, 0.0964707956, 0.0361282788, -0.0671955496, -0.1757149547, -0.1244728416, -0.0596492998, -0.0716934055, 0.0244456753, -0.0979446322, -0.0449945070, 0.0186674278, 0.0601211265, -0.2146893144, -0.0009771932, -0.1582817882, 0.0469460227, 0.1200823635, 0.0243017282, -0.0825526491, -0.0246950984, -0.0182780344, -0.1347895116, 0.0549647659, 0.0027532028, -0.0443101041, -0.0660191327, -0.0562912337, -0.0242391508, -0.0323610902, -0.0619974174, 0.0827214420, 0.0387369618, 0.1586885750, 0.0219051484, -0.0800573304, 0.0737379417, -0.0446199924, -0.1300947517, -0.0361856483, 0.0142918583, -0.0620266311, -0.0692918077, 0.1543048024, 0.0031991694, -0.0064031896, 0.0244279671, -0.0118683120, 0.0862236246, -0.1203698739, -0.0655978918, -0.0158951189, -0.1234574467, 0.0515486561, -0.0204311516, -0.0786636099, -0.0561320297, -0.0488319546, 0.1392994821, -0.1145241559, -0.0285097659, -0.0430815294, -0.1097469106, -0.0190528389, -0.0095416578, -0.0984320939, -0.0984974504, -0.0498527251, -0.1326232851, -0.0158645399, -0.0143489474, 0.0516148917, 0.0166875813, -0.0238696467, 0.0373862386, -0.0007157727, -0.0588203445, -0.0742723793, 0.0807796046, -0.0460956432, 0.0114364773, -0.0182276145, -0.0796633363, 0.0022398978, -0.0716511980, -0.0829130411, -0.0025777502, 0.0256531015, 0.0094374856, -0.1610764712, -0.0185065717, 0.0390365757, -0.0334175602, -0.0111346692, -0.1059907749, -0.1073733568, -0.0309609380, -0.0089697624, 0.0674700215, -0.0546950735, -0.0056636864, 0.0705019236, -0.0683835447, -0.0929122046, -0.0219802037, 0.0282330438, 0.0344921872, -0.0573136136, -0.0567813590, -0.1352447420, -0.0213680658, 0.0837899148, 0.0137151480, 0.0174897891, -0.0237014852, -0.1244127974, 0.1613913178, -0.0338886529, -0.0747065172, 0.0606791824, -0.1509306133, -0.0946112499, 0.0447782874, -0.0453668274, 0.0476416610, 0.0347426236, -0.1410921365, -0.1111392155, -0.0046740156, -0.1602400392, -0.0450612158, 0.0216178410, 0.0422159508, -0.1110896096, -0.1340273917, -0.0960345864, -0.2237194777, 0.1069876179, -0.0694603473, -0.0998762548, -0.1118289530, -0.0879943818, 0.0711598694, -0.0920903608, 0.0837335214, 0.0362483785, 0.0396397971, 0.0110124350, 0.0214049667, -0.0084095718, -0.0735535473, -0.0194580406, 0.0457001030, -0.1166147515, 0.0755337775, -0.1955437213, -0.0013074017, -0.0543082394, -0.2208205760, -0.1266230792, -0.0117914695, -0.1002534032, -0.0533935316, -0.0665250421, -0.0759686381, -0.0672605485, -0.0825458691, -0.1073188409, -0.0392954871, -0.0740258694, -0.0525552966, -0.1247609854, 0.0385927558, -0.1196083203, -0.0704943314, 0.0912155733, -0.1245669946, -0.0651856512, 0.0264528915, 0.0429488756, 0.0030833138, -0.0138108199, -0.0345411338, -0.0927605405, -0.0376175269, -0.0931536853, -0.1425517946, 0.1270217746, -0.0703288913, 0.0382024124, 0.0022561215, -0.1769985557, 0.0331076980, -0.1070078239, -0.0307362229, -0.1100420207, -0.0130194919, 0.0368717089, -0.0616343096, 0.0674950033, -0.1029114500, -0.0697098225, 0.0251563210, -0.1381471455, -0.1166189387, -0.1047584638, 0.0690510720, -0.1391691715, -0.0708316267, 0.0363107137, 0.0464286394, -0.0619869642, -0.0346602276, -0.0207633395, -0.1244039312, 0.1024851948, -0.1536353976, -0.0381309167, -0.0407105163, 0.0805931836, 0.0468738638, -0.3227334619, -0.0120121613, -0.1220312491, 0.0075998316, -0.0738783032, -0.0827197954, -0.0310496744, 0.0323106125, 0.0876010582, 0.1572612822, -0.1048955843, -0.1219946966, -0.0569850579, -0.0015288369, -0.1326413602, -0.1259014457, -0.0447970144, -0.0873032883, -0.0933185592, 0.0962438658, -0.0316648111, -0.1033257246, -0.0621629581, 0.0843815282, 0.0753212646, 0.0450730994, -0.1814128011, -0.0968054086, -0.0089805247, -0.0901079923, -0.1317157447, -0.0331842713, -0.1064020470, -0.0091778291, 0.0016417836, -0.0920935050, 0.0048621772, -0.0089735733, 0.0281609632, -0.1396990567, -0.0937008038, 0.0320383832, -0.0619160347, -0.1108197719, 0.0300200395, 0.0092500383, 0.0059159966, 0.0125887683, -0.0719758794, 0.0225642696, -0.1156000718, -0.0111817904, 0.0475955084, 0.0229311418, -0.0475343168, 0.0617071651, 0.0547258221, -0.1072491854, 0.0702705830, -0.1577638388, -0.0866919160, -0.0303495526, 0.0116973817, -0.0180365965, -0.1211067885, -0.1311837137, -0.1181259453, -0.0474747233, -0.0615405813, 0.0717477947, 0.0742451474, 0.0777705982, -0.1048648283, -0.0621166043, -0.0397660434, -0.2269093394, -0.0041196761, -0.0127246138, -0.0635678470, -0.0603997931, -0.1367743164, -0.0137210069, -0.0542505421, -0.0707215071, 0.0163779482, -0.1080518141, 0.0641575754, -0.0540089272, -0.1405612826, -0.0687087774, -0.0540484823, -0.0113201616, 0.0739632994, -0.1356508285, 0.0628021061, -0.0438473076, -0.0294266548, -0.1763233244, 0.0655243769, 0.0945233330, -0.0853222311, 0.1058681682, -0.0313144177, 0.0552703924, -0.2790148556, -0.0856204852, -0.0992477387, -0.1679734737, -0.1005460173, -0.0912054777, -0.0215717647, 0.0407550149, -0.1080640405, -0.1187533587, -0.1165975481, -0.0650073588, 0.0365451761, 0.0683713853, 0.0579266995, 0.1080235913, -0.0149989603, 0.0657583028, 0.0784951672, -0.0177654363, -0.0682430267, -0.2056018412, 0.0017196371, -0.0382744595, 0.0743335634, -0.1355126500, -0.1235798597, -0.0790029615, 0.0838813484, 0.0034121515, 0.0957873911, 0.0806685835, -0.0054885549, -0.0726923123, 0.0196239427, -0.1402310580, 0.0455857329, 0.0471899174, -0.0993355811, -0.0561477244, -0.0188988727, -0.0301509574, -0.0220860746, -0.0950493142, -0.1029815301, 0.0214394070, 0.0641318485, 0.0476987064, -0.1578437239, -0.0117318863, -0.0223311186, -0.0702683926, -0.0386779234, -0.0134675438, 0.0115053728, -0.0719947442, -0.0638875514, -0.0529386811, -0.1185658351, -0.0792093426, -0.1008936688, -0.1166563630, -0.0766078457, 0.0599607378, 0.0291675292, -0.0998037085, -0.1235795468, -0.0110554714, 0.0071871304, -0.1130282581, -0.1927897185, -0.0893657431, -0.0055654738, -0.0603991598, 0.0619252324, 0.0866226852, -0.0355791077, 0.0820474401, 0.0073501053, 0.0562755838, 0.0704875588, 0.0923506692, -0.0684308633, 0.1069637537, -0.0150754778, -0.2322201133, 0.0005455130, 0.0654402971, 0.0002069473, -0.0151887499, -0.0153470468, 0.0220755395, -0.0863469467, -0.0534202568, -0.1221116558, -0.0614569858, 0.0539478064, -0.1412595510, -0.0466681980, 0.0354740508, 0.0733654350, -0.0884374306, -0.0929126889, -0.1175411344, -0.0302005056, -0.0052647451, -0.0576366931, -0.0637669340, 0.0820720494, -0.0342081450, -0.0849681795, 0.2447017282, 0.0242837816, -0.0407420285, -0.0431253016, -0.0689342394, 0.0548922978, -0.0166365262, -0.0050126524, -0.0891455784, -0.0064693792, -0.0984916016, -0.0654395148, -0.0522759706, -0.0535624586, 0.0693601370, 0.0595713817, 0.0193490386, 0.1051328629, -0.0576748177, 0.0031072868, 0.0208955705, -0.0902890265, -0.0645518675, -0.2151891589, -0.0345109515, 0.0236748885, -0.1085572317, -0.1044505984, 0.0328092724, -0.0834908262, -0.0538599454, 0.0505810715, 0.1343516707, -0.0537632369, -0.1077791676, 0.0095288707, -0.0496783368, -0.1038634256, -0.0820147693, -0.0750966668, 0.0593076386, -0.0338924006, -0.2110254765, 0.0333976746, -0.1047257558, -0.0750311986, 0.0881941319, -0.0253864154, 0.0485320948, -0.1152981967, -0.1526057124, -0.0084000509, -0.0428799614, 0.0537976250, 0.0654314905, 0.0203742422, -0.1201013476, -0.1157360673, 0.0098181237, 0.0852425247, 0.0798271745, -0.0807441771, -0.0940436721, 0.0399885513, 0.0437150039, -0.1531601697, 0.0334502496, 0.0142106134, -0.0247312281, 0.0932902843, -0.1914420277, 0.0151044000, -0.0536356419, -0.0714566857, -0.2046318054, 0.0071501066, -0.0649510846, -0.0522605740, -0.0292118397, 0.0163538549, -0.1098007709, 0.0245572664, -0.3413570821, -0.0765978172, 0.0643050745, -0.0986218899, -0.0820199847, -0.0603317097, 0.0204827748, -0.0903422832, 0.0031273547, -0.0658806786, 0.0878978744, -0.0751061738, 0.0843669772, -0.0375834778, 0.0708315149, 0.0055785463, 0.0006490014, -0.1212456375, -0.0567714535, 0.0214850400, -0.1553762704, -0.0576697178, 0.0320899263, -0.0847461671, 0.0621371977, -0.0632926673, -0.0352887027, -0.0829323679, 0.0247951541, 0.0445906371, -0.0232939683, 0.0097746486, -0.1373313069, -0.1164781749, -0.0834633112, -0.0896299183, 0.0438215919, -0.1253377944, -0.0899412856, 0.0313750021, -0.0567273684, -0.0916162059, -0.0957864746, 0.0057460102, -0.0991744772, -0.0354840532, 0.1088245288, 0.0676766261, -0.0110096019, -0.0112498878, -0.0428320803, -0.0888278931, 0.0015930078, 0.0320386291, 0.0396036468, -0.1064977422, 0.0280708503, -0.0262267329, 0.0267372821, -0.0070423144, 0.0382693522, 0.0036966517, -0.0371378623, 0.0354918092, -0.0115114907, -0.1494089812, -0.0489753410, 0.0264924280, 0.0084756641, 0.0088364491, -0.0616536513, 0.0140540358, 0.0665139183, -0.0312011112, -0.0762040168, -0.1077864096, -0.0152707128, 0.0740642473, 0.0069922786, -0.0013490003, -0.0882881433, -0.0433118343, 0.0231931433, -0.0217217896, -0.0636879057, 0.0083693350, 0.0170778800, -0.0962215215, -0.1203093976, -0.0845521614, -0.0524071380, 0.0018184987, 0.1163803264, 0.0411061719, 0.0278398506, -0.1011437550, 0.0461402573, -0.0562687553, 0.0628666654, -0.0358917639, 0.0011069961, -0.1449690312, -0.0050087813, -0.0203656889, 0.0500661880, 0.0738070086, -0.0823730007, 0.0294823032, 0.0544743016, -0.0634724796, -0.0584362969, -0.0779016167, -0.0991435498, -0.0902089328, -0.0182594005, -0.0540573113, 0.0409373417, 0.0705918595, 0.0232940856, -0.1179512292, -0.1066347882, 0.0055171843, -0.0497332364, 0.0227217097, 0.0269899070, 0.0582708828, -0.0875961334, 0.0153445220, -0.1357968003, 0.0300518256, 0.0080446703, -0.0586527064, -0.1224211678, -0.0690577254, -0.0168015156, -0.0226031784, 0.0855576694, -0.0104000112, 0.0357902050, -0.0656636506, 0.0813013613, -0.1083549112, 0.0244024713, 0.0581244491, -0.1018397287, -0.1244900301, 0.0282818060, -0.0099209538, -0.1457877010, -0.1091331020, -0.0512156039, 0.0248569176, -0.1131358072, 0.0438921377, -0.0640006587, -0.0536385290, -0.0067615011, -0.0199730322, 0.0043734261, -0.0091935918, -0.1031104028, 0.0785116926, -0.0818872526, -0.0919703171, 0.0715066865, -0.0658574402, -0.0528883748, 0.1106648818, -0.0822670460, -0.0139211034, 0.0009489506, -0.0301939398, -0.0053769648, 0.1172142327, -0.0487225540, 0.0908986405, -0.0993767306, -0.0423047096, -0.0841841847, -0.0748969242, -0.0969205648, -0.0877134651, 0.0924612284, -0.0057629943, -0.0437095948, -0.0821394250, -0.1017392129, -0.0464825407, 0.0215354878, -0.0434250757, -0.0680922270, -0.0629882812, -0.1076696143, 0.0791733190, -0.0943137407, 0.0455190018, -0.0698117241, -0.0026897579, 0.0438225754, -0.0453762300, 0.0743282735, -0.0342649892, 0.0302794352, -0.0623867586, 0.0007954988, -0.0614153445, -0.0112095019, -0.0600333102, 0.0363495536, -0.0668562353, -0.1288710833, 0.0092626745, -0.1119752973, -0.1303511113, -0.0068868445, -0.1168109402, -0.0388484113, 0.0015482570, 0.0845317319, 0.0507818982, -0.1174174622, 0.0702086240, 0.0597903915, 0.0198917612, 0.0370536186, -0.0308898184, -0.0600950904, -0.0715892166, -0.0273004360, 0.0356042273, 0.0170565490, -0.0310252178, -0.0983835086, 0.1198627502, 0.0127092842, 0.0874520466, 0.0666252077, -0.0731970742, -0.0516008697, -0.0152714970, -0.0608350337, 0.0924050137, -0.0709555298, -0.1297431737, -0.1080207303, -0.0705978498, 0.0348477438, -0.0545072593, -0.0316087157, -0.0421757326, 0.0613161735, 0.0919665992, 0.0284494124, -0.0341127366, -0.0552997515, -0.1204344481, -0.0786989480, 0.0192389749, 0.0393342413, 0.0885653496, 0.0310825389, -0.0948535204, 0.0562184900, -0.0916975662, -0.0534176528, -0.0620338917, 0.0257754829, 0.0826896951, -0.1011446416, -0.0423407666, -0.0164150707, -0.1296565384, 0.0120096458, -0.0977541283, -0.0933054835, -0.0450306758, -0.1514739245, 0.0533114336, 0.0041145436, -0.1339803189, 0.0114808390, -0.1105201840, -0.0231599268, -0.1127602831, 0.0107011795, -0.0154270595, -0.1243309230, 0.0742955282, -0.0175122861, -0.0188738108, -0.0282225870, -0.0118050799, -0.0678613484, 0.0569895729, -0.0544309728, 0.0337589011, 0.0457348451, -0.0064757722, 0.0466347076, -0.0989928916, -0.0625133887, 0.0803895816, -0.0506695658, -0.0285566319, -0.0370991603, -0.0524040610, 0.0513063408, -0.0773509070, 0.0819260851, -0.0919315517, -0.0282625034, -0.1501037478, -0.1437331885, -0.0815399811, 0.0725288391, 0.0124240136, -0.0245898869, -0.0488314442, 0.0066260961, -0.0229118336, 0.0595685467, 0.0778518319, 0.0175394118, -0.0488471948, -0.0183431450, 0.0499258563, -0.1293136775, -0.0971492529, -0.1171117947, 0.0386970080, -0.0356132723, -0.0710600317, -0.0896433443, -0.0795691907, -0.0450175852, -0.0194945782, 0.0162358042, -0.0536984839, -0.0237606559, 0.0082428446, 0.0673165917, 0.0841824412, 0.0231983978, -0.1151181906, -0.1172294617, 0.0750440955, 0.1034425795, -0.0458173305, 0.0403510891, -0.0063514626, 0.0486617349, -0.0217356291, 0.0630249754, -0.0601435564, -0.0494110212, -0.0622972175, 0.0342555046, 0.0202569887, -0.1036786437, 0.0478469990, 0.0164912082, 0.0946778581, -0.0161437504, -0.0469718762, -0.0416929126, -0.0600666218, -0.0389663950, 0.0629855543, -0.1133899987, -0.1302602291, -0.1117512435, 0.0934747756, -0.1256510913, -0.0306871347, -0.0314917974, 0.0407644100, -0.1011729017, 0.0051359003, -0.0361448042, 0.0285799224, -0.0027327635, -0.0614098981, -0.0024514995, 0.0144764483, -0.0223935172, -0.1297286451, 0.0318119600, -0.0679073408, 0.0138724614, -0.0376041606, -0.0490099192, -0.0112501839, 0.0762496516, -0.0573043637, -0.0576547012, 0.0150594497, 0.0326942690, 0.0908440724, -0.0307146423, -0.1385945082, -0.0403267145, 0.0041557611, -0.1323431730, 0.0095920116, -0.0938071683, -0.1121747047, 0.0023901393, -0.0051897899, -0.0321871266, 0.0424798839, -0.0182841625, -0.0493797511, -0.0534344204, 0.0030857988, 0.0444831476, 0.0020277682, -0.0094784675, -0.0897644535, -0.0241562184, 0.0835193545, 0.0203854106, -0.0348105244, -0.0813024491, -0.0281963665, -0.1153192669, -0.0773978978, 0.0131161688, 0.0818021521, -0.0139704542, -0.0406802557, -0.1065168753, -0.1143317446, 0.0720417574, 0.0869443789, -0.1362118125, 0.0632557794, -0.0529027209, 0.0342529789, -0.0170883555, 0.0632230043, -0.0175508969, 0.0785015747, 0.0513941646, -0.0437862016, -0.0554118641, -0.0202609617, 0.0693434775, -0.0899014995, -0.1114130914, -0.0902255997, -0.0724153742, 0.0008982204, 0.0049817343, -0.1210408434, -0.0837476477, -0.0785989985, 0.0436867550, 0.0793764740, -0.0610109791, -0.1088203192, -0.0891035795, 0.0151123852, 0.0417947993, -0.0205712207, 0.0433183797, 0.0453692898, -0.0669125021, 0.0587133281, -0.1032191440, 0.0057001794, -0.0530610345, -0.0896669105, -0.0973891467, 0.0209213756, 0.0719351098, 0.0057872329, 0.0685152486, -0.0795034617, 0.0414438248, -0.0356455557, -0.0191147681, -0.1416730881, 0.0638045445, -0.0922273546, 0.0232786089, -0.0567504019, -0.1501390785, -0.1148712933, -0.0824683160, -0.0050756875, 0.0442352667, -0.0059296638, -0.0040999278, -0.0959369764, 0.6858648062, 0.0426683053, -0.1099467129, -0.0004336889, 0.1125807241, 0.1104770228, -0.0483631007, -0.0781009719, 0.0948742405, -0.0050610551, -0.1718311012, 0.3669857085, -0.1420594305, -0.1934505254, 0.0044781640, -0.0817671120, 0.3680169880, -0.1707181782, 0.3366613984, 0.0192486867, 0.0420197099, -0.0418629833, -0.0814912096, 0.0660491660, -0.0593852215, 0.4067618847, 0.0032593608, -0.0767404214, -0.0619772337, 0.0050354823, 0.0113614500, 0.0974605978, 0.2181491554, 0.1059646308, -0.0003093560, 0.2827715874, 0.3320331872, 0.0839893520, -0.1000292227, -0.1015529558, 0.0273951218, -0.0073275794, -0.7688024044, -0.1442712247, 0.1019551754, -0.3273054063, 0.0409329012, 0.0355768874, -0.0381059162, -0.1788485497, 0.2471195608, 0.1371167302, 0.3151141405, 0.0261583552, 0.0564944968, -0.1098629981, -0.2127059549, -0.0663380623, 0.1043165252, 0.0840859711, 0.0615131333, 0.0887898877, 0.0147905424, -0.0582094975, 0.1255647093, -0.2195562273, -0.0390540324, -1.0365231037, -0.1985339522, 0.1175567582, -0.1896578521, 0.1631930918, -0.0945431590, 0.1170300469, -0.0049057631, 0.2561250031, -0.0181552842, 0.1631140709, -0.0119785070, -0.0219989866, -0.1054275185, -0.0351132005, 0.0289415158, -0.0526383743, 0.0464373417, -0.0262131616, -0.0866797715, -0.3167380691, 0.1416325867, 0.0382608064, 0.0273587480, -0.0841072127, -0.0350412205, 0.0611338392, 0.1021082327, -0.0266861282, -0.0264405459, 0.1787978262, -0.3038014472, 0.3918508291, 0.0711482316, -0.0202575959, -0.0363653190, -0.3624770343, 0.0912964270, -0.0744203553, -0.3534074128, 0.2453114539, 0.0349836014, -0.0031270410, 0.0740689114, -0.1097875312, 0.0009991315, 0.1055593714, 0.0611152835, -0.1317062974, -0.0422536992, 0.0848590657, -0.0645506382, -0.2749972939, -0.0135232555, 0.0181954503, -0.0736038089, 0.5942453742, 0.0837080553, 0.0790443942, -0.0851286054, -0.0960995257, -0.0237063617, 0.1946507245, 0.1928558052, -0.0118197696, -0.3622892499, 0.2235620916, -0.0896835849, 0.1488100290, -0.0965037793, 0.1365578026, -0.6489096284, -0.1428777277, 0.1102769822, -0.3431531489, 0.0010459796, 0.0585074648, -0.0410614014, -0.0672383383, -0.2706913352, -0.3805739582, 0.1151894256, 0.1055157855, -0.0696386248, 0.0828633830, 0.2500272691, 0.2599594891, -0.0464582294, -0.1912478358, -0.1055321321, 0.0296356771, -0.0468938574, 0.0030593309, -0.0608027764, 0.0257539991, 0.3231936693, 0.0330294147, 0.3132337034, -0.1748645157, 0.0200689882, 0.1238469854, -0.0311526731, 0.0488391258, 0.0383507423, -0.1285783052, 0.2188962698, 0.3761066496, 0.0972870365, 0.0207053050, 0.2388213873, 0.2039992809, 0.1791606396, 0.3732919991, 0.3974538743, 0.0636216030, -0.0255205929, -0.2219138294, 0.0549802370, -0.2446154356, -0.0095100328, 0.0625562146, 0.0529356077, -0.0902690142, 0.0147394910, -0.0059568137, 0.0495325662, -0.0198398773, 0.0985790268, -0.5441904664, -0.3386092186, 0.1903858185, 0.4247169793, 0.1577558964, -0.0586744808, -0.1015815884, 0.2050033659, -0.0450108275, 0.1867024899, -0.1721654683, -0.0168923289, -0.0044707432, -0.2546332479, 0.3785879910, -0.7510463595, -0.4001147747, -0.5306723118, -0.0824244767, -0.0688475817, 0.4734244049, -0.0011652893, -0.0585652962, 0.1013967916, 0.0950493738, 0.0162379816, -0.0545115769, -0.0844471306, -0.0093839746, 0.0187910050, 1.0579923391, -0.4643906653, 0.9068721533, -0.1165705398, -0.1447275281, -0.1311693788, -0.2317509204, 0.0773812756, -0.0637193471, 0.6477252841, -0.0509900413, -0.6382676363, -0.0884204805, -0.0409705341, -0.1075195596, 0.0588428974, -0.2561539114, -0.0080497274, 0.0960635692, -0.0982907191, -0.0783710778, 0.1010617241, 0.5003343821, 0.0000471491, 0.0103735225, -0.0721470863, 0.0066742739, -0.0427097678, 0.0772343650, 0.1011262164, -0.0627856031, 0.5319715142, -0.0416212082, 0.1280098557, 0.1547747254, 0.1025195792, 0.0024541027, -0.2464814931, -0.4929663539, 0.0198868588, -0.4351734817, -0.1901499629, 0.2143495977, -0.2472023517, 0.1807546318, 0.1101803407, -0.0448124707, -0.0790455639, -0.7296598554, -0.0585355163, -0.1692059487, -0.0194917601, -0.0207436308, -0.0755860060, -0.9829784036, 0.0858097151, -0.3629794717, -0.0863407478, 0.0472637378, 0.0986895934, -0.0598301888, -0.0895494819, -0.0067878664, -0.3714107871, 0.0026701107, 0.0268748049, -0.4702584147, 0.3124095201, 0.1138413325, -0.2909655273, -0.0063218470, -0.0695901066, -0.1727373451, 0.1528397948, -0.0009933132, -0.3298182786, -0.0466897190, 0.0343567654, 0.0527312979, -0.0972425863, 0.0250982810, -0.0166834611, -0.2060391009, -0.0094675869, -0.0822468922, 0.0007558689, 0.2059137523, -0.2602891922, -0.6232830286, -0.0938132554, -0.5516990423, -0.0879155472, -0.0912425742, -0.0746835917, 0.0536024496, -0.2020135820, -0.0526976585, -0.4755913019, -0.6591821909, 0.5505111814, -0.0353605412, -0.7945181727, -0.2456003129, 0.0266188160, 0.1226363033, 0.0408078618, 0.0879054219, 0.1101076007, -0.0144834490, -0.0901813358, -0.0908289701, -0.1771014482, -0.0271872878, 0.1145815030, -0.1422320157, -0.3435664177, -0.0019711033, 0.0978377089, -0.0787580758, -0.0906974152, 0.3374137580, -0.0961583480, 0.0679944158, -0.0174415931, -0.0026956499, -0.0509948172, 0.0577052459, -0.1952398419, 0.0044875275, -0.0286340863, -0.1497781873, 0.2965483963, -0.2506427467, -0.5055496693, -0.1828783751, -0.0591878816, 0.1366157681, 0.0025309727, 0.0586211495, 0.0459419340, -0.0938158035, 0.0032330304, 0.0712141618, 0.0897655636, 0.0249940604, 0.2599608004, -0.0180020314, -0.1150155589, -0.0807836726, 0.0610916987, -0.0873058811, 0.1033751816, 0.1764629036, -0.0307998955, -0.2278694659, -0.0970447585, -0.0433934256, -0.0368034467, -0.0040013548, -0.0411956124, 0.1887849122, -0.0297134649, 0.1307210922, -0.0706571788, -0.1934973747, -0.0744545832, -0.0096058408, -0.0838471055, -0.1508593708, 0.0211033113, -0.1238298789, -0.1174780652, -0.0192514695, 0.0328867063, -0.0417677611, 0.1219705418, 0.0190900136, -0.1371412426, 0.0310431328, -0.0764567703, -0.0246298537, 0.0333393887, 0.1071081832, -0.0675172508, -0.0249780566, 0.0308008716, 0.1823712140, -0.0027948692, -0.0553190671, 0.0017443821, 0.0261222348, -0.0624706000, 0.1021745726, -0.1989547014, 0.1113228351, -0.0036014870, 0.0285195280, 0.2043168992, -0.1327804625, 0.0485867336, -0.0440399423, 0.0319922753, -0.0170356780, -0.0638235211, -0.0346076041, -0.0552200302, -0.0800747871, 0.0790045708, 0.0608165115, -0.0700738728, -0.0363538004, -0.0036365038, 0.0506974235, 0.0933260545, -0.0161132533, 0.0010165260, 0.2244332731, -0.0641397238, 0.4870558679, 0.0445120260, 0.0118461698, 0.1086523756, -0.0209513977, 0.0211233851, 0.1679081470, -0.0257920604, 0.0569939055, -0.1607981622, -0.0313777775, 0.0306984726, 0.2756691575, -0.0267155245, 0.0733650848, 0.0764938593, -0.1681939363, 0.0237537194, 0.1770144701, -0.0349936038, 0.0877042189, 0.1645812839, 0.1793073416, 0.1823752373, -0.0403349809, -0.1006655470, -0.0819194466, 0.0947728977, 0.0349204838, -0.0290900059, -0.1771664023, -0.0512010753, -0.0620765761, -0.0338442549, -0.0665197074, -0.0513671897, -0.0842785537, 0.0997475907, 0.0407983810, 0.0139570571, -0.0027924960, 0.0192483403, 0.0758880749, -0.1121041849, -0.1807437986, 0.0197268948, 0.0360524729, -0.0086929109, -0.0199424550, 0.1214918420, -0.1460902393, 0.0106624439, -0.0602008216, 0.0463177562, -0.0580144823, -0.1149939597, 0.0878102556, -0.0493747070, -0.1220803857, -0.0177722126, -0.1797493994, -0.0176882949, 0.1747542024, 0.0712371394, -0.0188183486, 0.0569185540, -0.0161197111, -0.0794317946, -0.0723705888, 0.0317048654, 0.0586672835, 0.0261291675, -0.0619464405, 0.0593014583, -0.0216157679, -0.0510534793, -0.1186261624, 0.0444538817, 0.0929205120, -0.1599629521, 0.0616606325, 0.0538299903, -0.1005694643, -0.1058920398, 0.0939046070, -0.1179214120, 0.0756997541, -0.0271207262, 0.0015993176, -0.0214204565, -0.1046293974, -0.0164167657, -0.2110380381, 0.0164530482, -0.1071512178, 0.0580902472, -0.1048949733, 0.0651542023, 0.0991746858, 0.0072120279, -0.1107894480, -0.1008523852, -0.1146433726, -0.1141036749, -0.1600081325, -0.0135073951, -0.0825441256, -0.0490270294, -0.0011466680, -0.0065774843, -0.0984596312, -0.0034763764, 0.0527982116, 0.0111820027, -0.2154797614, 0.0926495120, -0.1104699299, -0.0203945469, 0.0129912701, 0.0651931837, -0.0439596660, -0.1363288611, -0.0835695937, 0.0254893526, -0.0932913050, 0.0156139461, 0.0105574317, 0.0241867825, -0.0029351562, -0.0696849972, 0.0981449261, 0.1017148420, -0.0197735056, -0.0027088001, 0.0838354677, -0.0316181071, 0.0469105542, -0.0554623865, -0.0242613647, -0.0853025094, -0.0879725739, -0.0155149624, 0.0375985838, -0.0983417183, -0.1110908762, -0.1199341342, -0.1403066367, 0.0051585510, -0.0668991804, -0.0545523018, -0.0180210453, -0.0160756372, 0.0261612125, -0.2581676543, 0.0146997049, 0.0072200075, -0.0592246540, -0.0188608356, -0.1211837977, -0.0764988214, 0.0891555995, -0.0744084865, 0.0684630051, 0.0199456140, -0.0460078306, 0.0266440883, 0.0587067455, -0.0580997318, 0.0268243495, -0.0628426671, -0.0880178586, -0.0244213380, -0.0235344227, -0.0202198774, -0.1953328103, 0.0142886974, -0.2152170539, -0.1078833714, -0.0811010301, -0.0115299970, 0.0051933378, -0.0520971231, -0.0639303178, -0.0139238723, -0.0126085253, -0.2186511606, 0.0656466559, -0.0663161427, 0.1403495073, -0.1575372368, -0.1153625324, -0.0602670312, -0.1142066345, 0.0139998943, 0.0918055326, 0.0699027702, -0.0578412712, -0.0279364884, 0.1209594011, -0.1433873028, -0.0249443986, -0.1338033676, 0.0685935766, -0.1079151332, 0.0067759347, 0.0229588971, -0.1216289476, 0.0117735239, -0.0490236394, -0.1251667738, -0.0627769232, 0.0073542222, -0.0163358748, -0.0828067511, -0.0221108515, 0.1186483726, -0.0600828193, -0.2139517367, 0.0683091953, -0.0624628551, -0.0595391691, 0.0598861948, 0.1650300175, 0.1074850634, -0.1106216013, 0.0455504879, -0.0543572567, -0.1088297367, 0.0435895249, -0.0222259201, 0.1308121830, -0.1065180302, -0.1006198600, 0.1046499461, -0.1336080730, -0.0198039319, -0.1095890403, -0.0114715472, -0.0713619590, 0.1142414734, -0.0643974766, 0.0361408554, -0.0779036060, -0.0881977081, -0.0196854025, 0.0079187211, -0.0199754462, -0.1160155162, -0.0138207786, 0.0304267853, -0.0850055814, 0.0107039064, -0.0678098351, 0.0855823904, -0.0552412905, 0.1083507761, -0.0508306809, -0.0063355789, -0.0763937756, 0.0012418851, -0.0159950331, 0.0278551783, -0.0951202884, -0.0561896116, 0.0792035684, 0.0628280491, -0.1625188738, -0.1423909366, -0.1079944223, 0.0890928134, 0.0027088032, -0.0829456598, 0.1409449130, 0.1013850942, -0.1103620231, 0.0935556814, -0.0125242621, 0.0191541910, -0.1214483008, -0.0042386879, 0.1233652607, -0.1085826755, -0.0838356689, 0.0832720026, -0.0159399491, 0.0256379806, -0.0058708489, -0.0644550323, 0.0688492432, -0.0983243510, -0.0638752133, 0.0863493904, 0.0516032353, -0.0485380851, -0.0039716675, 0.0813773274, -0.0012081044, -0.0190331563, -0.0649199039, -0.1933698654, -0.0280582178, 0.0216136202, -0.0669677854, 0.0339038782, 0.0209169555, 0.0224751029, -0.0415891372, 0.1106659696, -0.0075643361, -0.1047260538, -0.1824535877, -0.0428804420, -0.0391899198, -0.1806037277, -0.0384668559, 0.0348473415, -0.2131053954, 0.0746098459, 0.0703509971, -0.0370216444, 0.0176546052, 0.0355933383, 0.1073566154, 0.0608298406, 0.0834952220, -0.0870781392, 0.0481453501, -0.0346435532, -0.0648362637, -0.1067813486, -0.1232329309, -0.2490285635, -0.1671508700, -0.0656387880, -0.0786462277, -0.1435663253, -0.0068450929, -0.0216020774, -0.2545617819, 0.0429007784, 0.0706217661, -0.0318965130, -0.0685611814, -0.0570690595, -0.1154439375, -0.0334145799, -0.0456401929, 0.0880644545, 0.0254396722, -0.0705313459, -0.0313804857, -0.0661258847, 0.0727578327, -0.1013051495, 0.0398238376, 0.0062847137, -0.0973758548, 0.0129506718, 0.0233055707, 0.0675151348, 0.0229294710, -0.0620196238, 0.0061211837, 0.0199491847, -0.1355418116, 0.0547660217, 0.0989645496, -0.0337103084, 0.0064997915, 0.0781739876, -0.0581401922, 0.0011122674, -0.0852356106, 0.0738895163, 0.0745761544, 0.0274170972, -0.0879482552, -0.1927871555, 0.0805872902, -0.0047861561, 0.0382288024, 0.0560781956, 0.0581904761, 0.0048713759, -0.0832637176, -0.1098926440, -0.0624625906, 0.0265692994, 0.0231804177, -0.0755860955, -0.0104440767, -0.0017552203, 0.0302486364, -0.1171125323, -0.1222100630, -0.0534728207, -0.2421732247, 0.0447420403, -0.0301356371, -0.1429217905, -0.0911341086, -0.0696437657, -0.1757410616, -0.0739770010, 0.0208960101, 0.0124846194, 0.0907107145, -0.1269555092, -0.0575552061, -0.0682619736, -0.0225866213, -0.0103500932, -0.0684882328, -0.0017764206, -0.0766971856, -0.0117177665, 0.0475037843, -0.1029338241, 0.0112151429, -0.0075224191, 0.1519361883, -0.1019791812, -0.0552731119, 0.0550387129, -0.1078663990, -0.1180012524, -0.1669005454, -0.1043084413, 0.0031192901, -0.0627056882, -0.0646378398, -0.0937386453, -0.0639789626, 0.0695483014, 0.0561213307, -0.0954133868, -0.0753821284, -0.0807410330, -0.0832384229, 0.0110383155, -0.1133392677, 0.1064767540, 0.0988136455, -0.0412826464, -0.1879443228, 0.0200524759, 0.0726428032, -0.0641820356, 0.0170144662, 0.0279171541, 0.0582170412, 0.0423793569, 0.0925469175, 0.0590876937, -0.0659772977, 0.0085454518, 0.0599075742, 0.0062309117, -0.0730032027, -0.0885093883, -0.2001812458, -0.0546537563, 0.0009690211, 0.0301805269, 0.0599185079, 0.0780166313, -0.2678053975, 0.0597304478, -0.0061275512, -0.1069509909, -0.0250126906, -0.0361138731, -0.0522079095, -0.0970443636, -0.0469216183, -0.0416809767, 0.0300884601, -0.0835079551, 0.0041043283, 0.1029620245, -0.0849102736, -0.0700441673, -0.0128689334, 0.0696069524, -0.0939456224, -0.0565316975, -0.0749451071, 0.0047513526, 0.0447229631, 0.0421789400, -0.0148879038, -0.1583761722, -0.0945352167, -0.1011385545, 0.0938614532, -0.0788231343, -0.0624044240, 0.0638781860, -0.1350802481, -0.0193023607, -0.0440699905, 0.0619947352, -0.0346936025, -0.0861805826, 0.0680809021, -0.0480157062, 0.0599890724, -0.0956600532, -0.0496236458, 0.0160970893, -0.0475695357, -0.0259303972, -0.0203259513, 0.0421940833, -0.0177286938, 0.0664577857, 0.1117272452, 0.3024238050, -0.0872711167, 0.0611342601, -0.0654215962, 0.4117275476, 0.0545242205, -0.0634419993, 0.0299627613, -0.0340703726, 0.0604401603, -0.1275532395, 0.0464044325, -0.1356565654, -0.0814598575, 0.0522368550, 0.0198400375, 0.0717746019, -0.0158262402, -0.1923499107, -0.0665872172, 0.0380664021, -0.0579463243, 0.0196679272, 0.2435746342, 0.0562379993, -0.0676127896, 0.0726965740, 0.0291268937, 0.0203300044, 0.0591769814, -0.0226669759, 0.0712996796, -0.2081650794, -0.0767098442, -0.0249758493, -0.1668766886, -0.1598744094, 0.0247888565, -0.2479400486, 0.0415805876, -0.0802501068, 0.0286925752, 0.4631774127, -0.0423739217, -0.0257569384, 0.3114630580, -0.0944309980, 0.0805686489, 0.0893776789, -0.0086423634, -0.0431417264, -0.1187500209, -0.0818037093, -0.0254291762, -0.0047174897, 0.0896813422, 0.0338876657, 0.1325657517, 0.0569326654, -0.0905248150, 0.0634264126, 0.0645379722, 0.0221122839, 0.0559803918, -0.0020460328, 0.5318179131, -0.0413929708, 0.5444011688, 0.2923490703, -0.1592441797, -0.3941443264, -0.1472922564, -0.0946483165, -0.0622417890, -0.3072195053, -0.2581664026, 0.0765772164, -0.2565084696, 0.0685472116, 0.0235504955, -0.4233987629, -0.1640683860, 0.0891493559, 0.0907249451, -0.1933455467, 0.0770178512, -0.0247817170, 0.1987349093, 0.0214100927, 0.0106320595, 0.0367209613, 0.1087321192, -0.0809567347, 0.0535603538, -0.0426809117, -0.0331638046, -0.1145931035, -0.1280764788, -0.0376602784, 0.3133796453, 0.0809800029, -0.1790170372, 0.0407044739, -0.4344865084, -0.0330449864, 0.0137719810, -0.5851534605, -0.0944762379, 0.0736330152, -0.1726349890, 0.0730503052, -0.0737480447, -0.2314056307, -0.0478533730, -0.4176727831, -0.0572203174, -0.2390263379, 0.0290895756, 0.0547134168, -0.1957550645, 0.0732750297, -0.1687629372, 0.0032927608, -0.1978326738, -0.0774498731, -0.0762472451, 0.0316767506, -0.0779783800, 0.0547062941, 0.0251704231, 0.2130670249, -0.1350321919, -0.0352370925, 0.1069009379, -0.0114218043, 0.2690542638, 0.0447238497, -0.0372185446, 0.1644125432, -0.8280630708, 0.0459289998, 0.1786682904, 0.0023593500, -0.0795174390, 0.1787085831, 0.1616592854, 0.1718419641, -0.0448269360, 0.3793930411, -0.0228354037, 0.0002283654, 0.1577508748, 0.1306971461, -0.1712896824, -0.0199129619, -0.0413901359, -0.0016127825, 0.0256615970, 0.0824626908, -0.1171037033, 0.0548344329, -0.0219578817, -0.2227457762, 0.1169807613, -0.2740034759, 0.0354548134, 0.1594490856, -0.1739964634, 0.0925662816, 0.0924683437, -0.0875932649, -0.0218072142, 0.1091700643, -0.1674400568, 0.1260750294, 0.0906999335, -0.2957179546, 0.1186287403, 0.3100441098, -0.0439325683, -0.0901750475, 0.0100176055, -0.0020894990, 0.1385471076, -0.0698155165, 0.3004729450, -0.0321300849, 0.0144415786, 0.0713207796, 0.0774183944, 0.0473972298, 0.1042495295, -0.1599713415, 0.0203961655, -0.1119173095, -0.2670775056, 0.1140571758, -0.0279083997, -0.4903382063, 0.2709143162, -0.0858170390, -0.1239351481, 0.9964996576, 0.1138282940, -0.0214989204, -0.0789844915, 0.0597386807, -0.0008706193, 0.0437783413, 0.0353978463, -0.1434517503, -0.1149131134, 0.2468802333, -0.0624504983, -0.0305546708, -0.3265558779, 0.1059727818, -0.1495818496, 0.0362275504, -0.0508977063, -0.1137592569, 0.1246928349, -0.0271965228, -0.1497182399, 0.2817716897, 0.4452477396, 0.0242086612, 0.7125561237, 0.0885177776, -0.1662532389, 0.3873065710, -0.5708844066, -0.0510772653, -0.3818047345, -1.0614351034, -0.0282191355, 0.4485584199, 0.2419520915, -0.0608148761, -0.0872632712, 0.0295738298, -0.1119779199, -0.9902178645, 0.1601332873, -0.2761830688, -0.0827171803, 0.0976084545, 0.2582967877, -0.2717673779, 0.1240388602, 0.0342235342, -0.0407482907, -0.1012200415, -0.0543597192, 0.0940202251, -0.0202011541, 0.5535706282, 0.1693369895, 0.2789156735, -0.0346628167, -0.2525127232, 0.1475744545, -0.3449893892, 0.0481815711, 0.0282837041, -0.0502359793, 0.8972121477, -0.1415299773, -0.6429884434, 0.2377749085, 0.0245872196, 0.0930493400, 0.2040730715, -0.8722249269, 0.8547822237, 0.7647827268, 0.1251932681, -0.0337143801, 0.0732223094, -0.0709635541, -0.2476992905, -0.0246903803, -0.0762884915, -0.0650670379, 0.0295204055, 0.0022033376, -0.0603446700, 0.0332533196, 0.6287813783, -0.2677845657, -0.4177649021, -0.2177349329, 0.2617764771, 0.0686568767, 1.5222315788, -0.5292224288, 0.0057783001, 0.0002340796, -0.4082867801, -0.1846971959, 0.1400483400, -0.2371242195, 0.0819886178, -0.0119438646, -0.3704478443, -0.1278091073, -0.0730151534, -0.2181352675, -0.2758509815, -0.0955701768, 0.0772290826, 0.1751342565, -0.1465213299, -0.9712424874, -0.0779279172, -0.0886471719, 0.0614212938, -0.0571130216, -0.0525051840, -0.0431374572, -0.1293930709, -0.0707325265, 0.0107227769, -0.4454717040, 0.6767257452, -0.3604619503, -0.5603284836, -0.0836597607, -0.0591968894, 0.0968791172, -0.0337520279, -0.0051132510, -0.1842504293, 0.0015962740, -0.0340941288, -0.0347252488, -0.2712120712, 0.0205263104, 0.4345588088, 0.0571865551, 0.1978856325, -0.0275751390, 0.0494953282, 0.1410092860, -0.0499974638, 0.3079458773, 0.0299823564, 0.0542345271, -0.0856819898, 0.1044016480, -0.0865717009, 0.0079772845, -0.1367763430, -0.0087824482, -0.0482033789, -0.0757288858, 0.0691651702, -0.2376303226, -0.5797020793, 0.2125392556, 0.0376350395, 0.1499825567, 0.0413208753, 0.0244696457, -0.0859288350, -0.1585188657, -0.0941968858, -0.0379141569, -0.1861968935, 0.0316853002, 0.3023663461, -0.1146452427, 0.0894249901, -0.0223230086, 0.0702364743, -0.0492737219, 0.0772977918, 1.2738367319, 0.0970071927, 0.6708714366, 0.0613970086, 0.0453432761, -0.0956711844, 0.1034229025, -0.3570240140, 0.0816469043, 0.1862830073, -0.1793021858, 0.2253675908, 0.0511231273, 0.1618228257, 0.0822836757, 0.0588332079, 0.2326285690, 0.0545846187, 0.0165446848, -0.0045746956, -0.1045826152, 0.0860013887, -0.0568548180, 0.1356544346, -0.0218951311, -0.1277427226, 0.1888557523, 0.1239848137, 0.0703279823, -0.1198454201, -0.0035801118, 0.1654903442, 0.1935407519, 0.0444199070, 0.0529754907, -0.0987589806, -0.0464980192, 0.0446309783, 0.0612720475, 0.0810859203, -0.0756756142, 0.3125929534, 0.0143110948, 0.0852812678, 0.1374603212, 0.2892251313, 0.3462311625, 0.0907481983, -0.0431976505, -0.0407013074, 0.0075846016, -0.1255890429, 0.0132155437, -0.0083517777, -0.0832585916, 0.0905999765, -0.1105243117, 0.0193764623, 0.0657853261, 0.0197833013, 0.0237141866, -0.0023073344, 0.1614813656, -0.0482755862, 0.2161744982, -0.0071099256, 0.1273402423, -0.0623699762, 0.1142424121, 0.0351888910, -0.0120051205, -0.1452222764, -0.1687663347, 0.0576163940, -0.0283448882, -0.0500613302, -0.1493134648, -0.0839168951, 0.1840487272, -0.0958800763, 0.1201100647, -0.0219385717, 0.0072449618, 0.0050651091, -0.1663371176, 0.0321443081, -0.0853911266, -0.0561442226, -0.0323533677, 0.2068323642, -0.0934260413, 0.0168047696, -0.1127429381, -0.0556890592, 0.0281939488, -0.0375809148};
#endif

#endif
