//Numpy array shape [128, 1, 32]
//Min -0.795466065407
//Max 0.934960246086
//Number of zeros 2048

#ifndef W2_H_
#define W2_H_

#ifndef __SYNTHESIS__
conv1d_weight_t w2[4096];
#else
conv1d_weight_t w2[4096] = {0.2157305926, 0.1411071271, -0.0000000000, 0.1635704488, 0.0000000000, 0.0000000000, 0.0000000000, 0.0000000000, -0.1655052155, -0.0000000000, -0.1534197181, -0.0000000000, -0.0000000000, -0.0000000000, 0.2918489575, 0.2428929806, -0.0000000000, 0.0000000000, 0.0000000000, -0.3350991309, 0.3495028317, 0.2343245000, -0.2678389847, -0.0000000000, -0.1224081814, -0.4781958461, 0.1838597655, -0.0000000000, -0.0000000000, -0.0000000000, -0.0000000000, -0.0000000000, 0.1667737961, 0.0000000000, 0.0000000000, 0.0000000000, -0.1905777156, 0.0000000000, -0.0000000000, -0.0000000000, -0.0000000000, 0.1518104970, -0.1717040986, -0.0000000000, 0.0000000000, -0.1025926918, 0.0868082494, 0.0000000000, 0.2198763192, 0.1513238996, 0.0000000000, 0.1817035824, -0.2780855894, -0.3008498549, 0.1603657752, -0.0000000000, -0.1371299475, 0.0000000000, -0.0000000000, -0.0000000000, 0.1179383919, 0.3359307051, -0.3192846775, 0.0000000000, -0.0000000000, 0.0000000000, 0.1475983560, 0.2867581546, 0.0000000000, 0.0000000000, -0.0836046636, -0.1267859936, -0.0000000000, -0.0000000000, -0.1730984300, 0.0000000000, -0.0000000000, -0.1268497258, 0.2491492331, 0.2076256126, -0.1479551941, 0.0000000000, -0.0000000000, -0.1723020971, 0.1723928899, 0.2119185179, -0.2321868092, 0.0000000000, -0.0000000000, -0.3021739721, 0.0000000000, 0.0000000000, -0.0000000000, 0.0000000000, 0.2257156670, 0.2122385204, -0.0000000000, -0.0000000000, 0.1278378069, -0.0000000000, 0.0000000000, 0.2151732594, -0.2618924379, -0.2598721981, 0.1515051275, 0.0000000000, -0.1384416968, 0.0000000000, -0.0000000000, -0.3328697979, 0.3708111048, -0.0000000000, 0.0000000000, 0.3221082091, -0.3583735526, -0.2057750672, -0.0000000000, -0.1611332446, 0.1014488041, 0.2080004364, -0.2087925524, 0.0000000000, -0.0000000000, -0.2575257123, 0.2628008723, 0.1561730206, -0.0000000000, 0.0000000000, -0.0000000000, 0.3814568222, -0.5277346373, -0.1759042740, -0.0000000000, -0.1744252890, 0.0000000000, 0.3081285059, -0.1390178800, 0.0000000000, 0.1229343563, -0.0000000000, 0.0000000000, 0.0000000000, 0.0000000000, -0.1507394463, 0.2112888396, -0.0000000000, -0.0000000000, -0.0000000000, -0.0000000000, -0.0000000000, -0.0000000000, -0.0000000000, 0.0000000000, 0.0000000000, 0.0000000000, 0.0000000000, -0.2501078248, -0.1755726337, -0.0000000000, -0.1711001247, 0.1834735125, 0.1581651717, -0.1169212088, 0.0000000000, -0.0000000000, -0.2953446805, 0.4700386524, 0.1340620965, 0.0000000000, 0.1487361193, -0.2081734687, -0.2335182726, 0.0979686975, -0.0000000000, 0.0000000000, 0.0000000000, -0.0000000000, -0.2173784226, 0.4737597704, -0.0000000000, -0.1027604267, 0.1657807231, -0.3905704319, -0.4823462963, 0.4975845814, -0.0000000000, 0.0000000000, 0.4627986848, -0.3349988759, -0.2640540600, -0.0000000000, -0.1191219538, 0.0000000000, 0.2560459375, -0.2049345076, -0.0000000000, -0.0000000000, -0.1634469926, 0.2980285585, 0.1611965001, 0.0000000000, 0.1408540457, -0.0000000000, -0.3569007814, 0.2645021081, 0.0000000000, -0.1976516992, 0.0000000000, -0.1660359353, -0.2988471389, 0.3428388238, 0.1632766873, 0.0000000000, 0.4414834976, -0.4816703200, -0.1427339613, 0.0000000000, -0.0000000000, 0.0000000000, 0.2760849297, -0.3157812953, -0.1842709631, -0.0000000000, -0.0000000000, 0.2060821056, 0.5718080997, -0.3134823740, -0.0000000000, -0.2203441858, -0.2927966118, 0.2762396634, 0.0000000000, 0.1422691494, 0.2770217061, 0.0000000000, -0.0950066522, 0.0000000000, 0.0000000000, -0.0000000000, 0.0000000000, -0.3178271353, -0.2285545021, 0.1508442461, -0.0000000000, 0.0000000000, 0.1705668122, -0.1094994918, -0.1565579325, 0.2731072605, 0.0000000000, 0.1099717692, 0.2672732770, -0.3398058116, -0.0000000000, -0.0000000000, -0.1622585654, 0.1202875525, -0.0000000000, 0.0000000000, 0.0000000000, -0.0000000000, -0.2304387242, 0.2936419845, 0.2113476694, -0.1916639060, 0.0000000000, -0.1012656167, -0.4896166027, 0.2859620452, -0.0000000000, -0.1568504721, 0.0941307992, -0.0000000000, -0.2147529721, 0.2382535934, 0.1243566126, 0.0000000000, 0.0000000000, -0.1108558998, 0.0000000000, 0.0982200056, -0.0000000000, 0.0000000000, 0.0000000000, -0.0000000000, 0.0000000000, -0.0000000000, -0.0000000000, 0.1269512624, 0.2087610364, -0.1891462654, 0.0000000000, 0.0000000000, -0.1916085035, 0.2171180695, 0.1712411940, -0.1028625444, -0.0000000000, 0.0000000000, -0.3263411224, 0.2055658400, 0.0000000000, -0.0000000000, -0.0000000000, -0.1887582392, -0.1968832016, 0.2909015715, -0.0000000000, 0.0000000000, 0.3674188256, -0.3338859081, -0.1550960541, 0.1786403358, 0.0000000000, 0.0000000000, 0.3582345843, -0.1917427182, 0.0000000000, -0.0000000000, -0.0000000000, 0.0000000000, -0.0000000000, -0.0000000000, 0.0000000000, -0.0000000000, -0.0000000000, 0.2778288126, 0.2337738574, -0.3267065287, 0.0000000000, -0.1272203326, -0.4361667931, 0.5640116930, 0.1976822764, -0.0000000000, -0.0000000000, -0.1945001930, -0.3724761903, 0.2615628242, 0.0000000000, -0.0000000000, 0.2591002882, 0.0000000000, 0.0000000000, 0.0000000000, 0.0000000000, 0.0000000000, 0.0000000000, -0.3049557507, -0.1160877496, -0.0000000000, -0.0000000000, 0.1565595716, 0.4078827202, -0.3529115617, -0.0000000000, -0.0000000000, -0.1993828118, 0.3019263446, 0.3491542041, -0.1186076179, 0.0000000000, 0.0000000000, -0.1517596543, 0.0000000000, 0.1129632145, -0.1815553904, 0.0000000000, -0.0000000000, -0.2499387711, 0.2715509832, -0.0000000000, -0.0000000000, 0.1657503396, -0.1335534155, -0.1273375005, 0.1574801505, -0.0000000000, 0.0000000000, 0.2357838601, -0.3518114984, -0.0000000000, 0.0000000000, -0.1572956592, 0.0000000000, -0.0000000000, -0.0000000000, 0.1360168010, -0.1538325101, -0.1528543681, 0.2239579260, 0.0000000000, -0.0000000000, 0.1537898332, -0.3410685360, -0.3177927732, 0.2097358257, 0.0000000000, -0.0000000000, 0.3412466347, -0.2406364381, -0.0000000000, 0.0000000000, -0.2224607617, 0.2216812372, 0.2868503034, -0.1308519244, 0.0000000000, -0.0000000000, 0.0000000000, -0.0000000000, 0.1447926164, -0.5509352088, 0.0000000000, -0.0000000000, -0.0000000000, 0.0000000000, 0.0000000000, 0.0000000000, 0.0000000000, -0.0000000000, -0.0000000000, 0.1679098606, -0.0000000000, 0.0000000000, 0.1544095874, -0.2178302556, 0.0000000000, -0.1643953174, -0.2136542499, 0.1912099570, 0.1449529529, -0.1705172211, 0.1538284868, 0.0000000000, -0.1431505382, 0.2317718118, 0.1347017884, -0.1051319987, -0.0000000000, 0.0000000000, -0.2447161376, 0.3305384815, 0.1288239211, 0.0000000000, 0.1738451421, -0.3198827803, -0.4060224593, 0.2266728729, -0.0000000000, 0.0000000000, 0.3504126966, -0.2191788852, -0.3473675549, 0.4129866660, -0.0000000000, 0.0000000000, 0.2030643821, -0.2039042264, 0.0000000000, -0.0000000000, -0.0000000000, 0.0000000000, 0.0000000000, -0.2939106822, -0.1852118969, -0.0000000000, -0.0000000000, 0.1816638857, 0.2181568295, -0.0000000000, -0.0000000000, 0.0000000000, -0.0000000000, 0.0000000000, 0.0000000000, -0.2619425952, -0.0000000000, -0.0000000000, -0.0000000000, 0.0000000000, 0.0000000000, -0.1620658636, 0.0000000000, 0.0000000000, -0.0000000000, 0.1350815594, 0.0000000000, 0.2983598411, 0.1509877145, -0.1402698457, -0.0000000000, -0.3781496584, -0.3550753295, -0.0000000000, -0.0000000000, 0.0000000000, 0.0000000000, 0.1193474829, 0.0000000000, -0.0000000000, -0.0000000000, -0.1613034904, -0.1954175085, 0.1694327593, 0.0000000000, 0.3080660999, 0.2455878109, -0.1184161678, 0.0000000000, -0.2601064444, -0.2741389275, 0.1648825854, -0.0000000000, 0.0620626286, 0.1708664596, -0.2353552580, -0.1609600186, 0.1330762357, -0.0000000000, 0.0000000000, 0.0000000000, -0.2595742643, -0.1391542554, -0.0000000000, -0.0000000000, 0.3447125554, 0.3256282210, 0.0000000000, 0.1855612099, -0.0000000000, -0.1562030017, -0.0000000000, 0.0938694552, -0.2162420899, 0.0000000000, 0.0000000000, -0.2897190750, -0.0000000000, 0.1693203747, -0.2134172767, -0.1254493743, 0.2265688777, -0.0000000000, 0.2552864552, 0.5098646879, -0.3001149595, -0.1465586573, -0.0000000000, -0.4876022637, -0.0000000000, -0.0000000000, -0.0922489539, 0.0000000000, -0.0000000000, 0.0000000000, -0.0000000000, -0.0000000000, 0.0000000000, 0.0000000000, -0.0000000000, -0.0000000000, 0.0000000000, -0.0000000000, -0.1544904113, 0.0000000000, -0.2147635818, -0.3723901212, 0.0000000000, 0.0000000000, -0.0000000000, 0.2428625077, -0.0000000000, -0.0000000000, 0.0000000000, 0.0000000000, -0.0000000000, -0.0000000000, 0.0000000000, -0.0000000000, -0.1300133169, 0.0000000000, 0.0000000000, -0.1827386320, 0.0000000000, 0.0000000000, -0.0000000000, -0.1418474466, 0.2739751637, -0.0000000000, 0.1970799416, 0.2744918168, -0.1675372273, -0.0000000000, 0.0000000000, 0.0000000000, -0.0000000000, 0.0000000000, 0.0000000000, -0.0000000000, 0.0000000000, 0.0000000000, -0.0000000000, 0.0000000000, -0.2309779674, -0.1687270701, 0.3015366197, -0.0000000000, 0.1529729962, 0.6794435382, -0.7216647267, -0.2416822761, 0.0000000000, -0.1950986236, 0.1073283702, 0.3600690365, -0.1729497164, -0.1202695146, 0.3728411794, -0.0000000000, 0.0000000000, 0.1706100553, -0.1707236469, -0.2755316496, 0.2497869879, -0.0000000000, 0.0000000000, 0.2076140195, -0.0000000000, 0.0000000000, -0.4640411735, -0.4664108455, 0.3737334609, -0.1455878317, 0.3225119114, 0.7075237632, -0.5388647914, 0.0000000000, -0.0000000000, -0.3472075760, 0.2976060510, 0.1409890801, 0.0000000000, 0.0000000000, -0.0000000000, -0.3446675241, 0.1594208032, 0.1261305362, -0.1201936230, 0.0000000000, 0.0000000000, -0.3091309667, 0.3556585312, 0.1353710592, -0.0000000000, 0.2322852612, -0.2827458382, -0.3949928582, 0.2594562471, -0.0000000000, 0.0000000000, 0.3424260020, -0.4683722258, -0.1220799163, 0.1679257900, -0.0000000000, 0.0000000000, 0.4217805862, -0.2634005547, -0.1879495233, -0.0000000000, -0.0000000000, 0.2656591535, 0.0000000000, 0.0000000000, 0.0000000000, -0.0000000000, -0.0000000000, 0.1440756023, 0.0000000000, -0.1484472901, 0.0000000000, -0.1145291775, -0.2357157618, 0.0000000000, 0.0000000000, -0.0000000000, 0.1841456443, -0.0000000000, -0.0000000000, 0.0000000000, 0.0000000000, -0.0000000000, 0.0000000000, -0.0000000000, -0.0000000000, -0.1744632423, -0.1360314488, -0.0000000000, 0.0000000000, 0.1622346789, 0.2592620850, -0.0775405839, 0.0000000000, -0.0000000000, 0.0000000000, -0.0000000000, -0.0000000000, 0.0000000000, 0.0000000000, -0.0000000000, 0.0000000000, 0.2068687528, -0.0000000000, 0.0000000000, 0.0000000000, -0.2080941796, -0.3302947879, 0.3339329064, -0.0000000000, 0.0000000000, 0.1915001720, -0.2255044281, -0.3626323342, 0.2115180492, -0.0000000000, 0.0000000000, 0.1961156726, -0.0000000000, -0.0000000000, 0.1911497414, -0.0000000000, 0.0000000000, 0.1715192348, -0.1879095733, -0.1138484776, -0.0000000000, -0.0000000000, 0.2320613861, 0.4214807749, -0.2977794707, 0.0000000000, -0.0000000000, -0.2574106753, 0.2149150074, 0.1979954243, -0.0000000000, 0.0000000000, -0.0000000000, -0.1502710134, 0.1135864779, 0.1430905908, -0.1866983622, 0.0000000000, -0.0000000000, -0.1490187049, 0.0000000000, 0.0000000000, 0.1201038882, 0.0000000000, -0.0000000000, 0.1324483305, -0.3100102246, -0.1602206677, -0.0000000000, 0.0000000000, 0.0000000000, 0.2309169173, -0.0000000000, -0.0000000000, -0.0000000000, -0.0000000000, -0.0000000000, -0.0000000000, -0.1701777875, -0.1933274120, -0.0000000000, -0.1278154999, 0.2187609822, -0.0000000000, 0.0000000000, 0.0000000000, -0.0000000000, 0.0000000000, 0.1655678749, -0.0000000000, -0.0000000000, 0.1591473520, -0.5031375289, -0.2229635417, 0.1679744571, -0.0000000000, 0.0000000000, 0.2761707306, -0.2803134322, -0.2096934468, 0.1886194348, 0.0000000000, -0.0000000000, 0.2910501063, 0.0000000000, 0.0000000000, -0.0000000000, -0.0000000000, 0.0000000000, 0.1202298701, -0.2521258593, 0.0000000000, -0.0000000000, -0.1512745917, 0.1696843505, 0.1363948882, 0.0000000000, 0.0000000000, -0.0000000000, 0.0000000000, 0.3303726017, -0.0000000000, 0.0000000000, 0.0000000000, -0.2508184314, -0.2943925858, -0.0000000000, -0.0000000000, 0.0000000000, 0.0000000000, -0.1641979963, -0.1795382351, 0.1745938212, 0.0000000000, -0.0000000000, 0.3075634539, -0.0000000000, -0.0000000000, 0.0000000000, 0.0000000000, -0.0000000000, 0.0000000000, -0.2234742194, -0.0000000000, 0.0000000000, -0.2661556005, 0.2713958025, -0.0000000000, 0.0000000000, 0.2638730407, 0.0000000000, 0.0000000000, 0.1264832169, 0.0000000000, -0.0000000000, 0.2701600492, -0.3245039582, 0.0000000000, -0.0000000000, -0.1961700320, 0.0000000000, -0.0000000000, -0.0000000000, 0.0000000000, -0.0000000000, -0.0000000000, 0.2011716962, 0.2610563934, -0.1781754494, 0.0000000000, -0.0000000000, -0.2258289456, 0.1438798308, -0.0000000000, 0.0000000000, 0.0000000000, -0.0000000000, -0.1490633637, 0.1741535664, -0.0000000000, -0.0000000000, 0.0000000000, -0.0000000000, -0.1047023311, 0.0000000000, 0.0000000000, -0.0000000000, -0.0000000000, 0.0000000000, -0.0000000000, 0.0000000000, -0.1209724247, -0.0000000000, -0.0000000000, 0.0000000000, 0.1107683852, 0.0000000000, 0.0000000000, -0.0000000000, -0.0000000000, -0.0000000000, -0.0000000000, -0.1764356494, -0.3616601825, 0.2522107959, -0.0000000000, 0.1778809428, 0.2116719633, 0.0000000000, 0.0000000000, -0.1913393885, 0.0000000000, 0.0000000000, -0.1180648133, 0.0000000000, 0.1845723093, -0.3524391353, -0.3009730875, -0.0000000000, -0.1067195684, 0.3247706294, 0.5558179617, -0.2269828469, -0.0000000000, 0.2782424986, -0.0000000000, 0.0000000000, 0.0000000000, -0.3688828945, -0.2474201173, 0.1063802168, -0.0000000000, -0.1287130415, 0.0000000000, -0.0000000000, -0.2361092269, 0.1562397033, -0.0000000000, 0.0000000000, 0.0000000000, -0.0000000000, 0.1053388268, -0.0000000000, -0.0000000000, 0.0000000000, 0.0000000000, -0.0000000000, 0.0000000000, -0.2032303661, -0.1562516987, -0.0000000000, -0.2140457481, 0.2830021381, -0.0000000000, 0.0000000000, -0.0000000000, 0.1523030400, 0.1686890423, 0.0000000000, -0.0000000000, -0.1738801599, -0.2161357701, -0.0000000000, -0.0000000000, 0.0000000000, 0.0000000000, -0.0000000000, -0.0000000000, 0.0000000000, 0.1905827075, -0.0000000000, 0.0000000000, 0.3247939646, -0.0000000000, 0.0000000000, 0.1807450205, -0.2188209146, -0.4439153075, 0.3595086932, -0.0000000000, 0.0000000000, 0.0000000000, -0.1947121769, -0.3607164025, 0.3946454823, 0.0000000000, -0.0000000000, 0.1901939362, -0.0000000000, -0.0000000000, 0.1695210934, -0.0000000000, 0.0000000000, 0.0000000000, -0.1609299481, -0.1469300985, 0.0000000000, -0.0000000000, 0.0000000000, 0.1455695629, -0.0000000000, 0.0000000000, -0.0000000000, -0.1310052574, 0.2773310542, 0.0000000000, 0.1995098442, 0.2086481303, -0.0000000000, -0.0000000000, 0.0000000000, -0.1686356217, 0.0000000000, 0.0000000000, 0.0000000000, 0.0000000000, 0.0000000000, 0.0000000000, 0.2552579045, 0.2334146947, -0.0000000000, 0.1957927495, -0.2930547893, -0.2467467487, 0.1524920017, -0.0000000000, 0.0000000000, 0.1356254518, 0.3961975873, -0.0000000000, 0.0000000000, 0.3555094898, -0.3022998273, -0.5922898650, 0.4845408797, -0.0000000000, -0.1051565856, 0.1843343377, -0.1370532960, -0.3491264284, 0.2260056883, 0.1753206551, -0.2245183438, 0.0000000000, 0.1461931020, -0.1537839174, 0.1799457222, 0.2040427625, -0.0000000000, 0.0000000000, -0.1402848661, -0.0000000000, 0.0000000000, 0.0000000000, 0.2202536613, -0.0000000000, 0.0000000000, 0.2632125318, -0.1309444755, -0.2036490738, 0.2799486220, -0.0000000000, 0.0000000000, 0.1777506769, -0.2640404403, -0.4117223024, 0.2949790657, 0.0000000000, -0.0000000000, 0.1918043792, -0.1998888999, -0.2500065565, 0.2300088555, -0.0000000000, -0.0000000000, 0.1792009175, 0.0000000000, -0.2936638594, 0.3218917549, 0.1377770752, -0.0000000000, -0.0000000000, 0.0000000000, -0.2237846106, 0.0000000000, 0.0000000000, -0.0000000000, -0.0000000000, 0.0000000000, 0.1499822587, -0.1176499277, -0.1957906038, 0.8785224557, -0.0000000000, 0.0000000000, 0.2217552811, -0.2626063228, -0.5954106450, 0.4044002891, -0.0000000000, 0.0000000000, 0.2549379766, -0.1279112697, -0.1989012808, 0.0000000000, -0.0000000000, -0.1011568084, 0.0000000000, 0.2139950842, -0.0000000000, 0.0000000000, 0.3183184564, -0.1840785444, -0.2937170267, 0.1333953589, -0.0000000000, -0.3648902774, 0.0000000000, 0.2040644735, -0.1155406833, 0.1620761156, 0.6616476178, -0.7899083495, 0.0000000000, 0.1394990981, -0.2061587870, 0.2216579169, 0.6056483984, -0.4468955100, -0.1734230667, 0.2224267274, -0.1757341027, -0.0000000000, 0.3698937297, -0.1538699716, -0.3347083330, 0.2863988280, 0.2534400225, -0.2578495145, 0.1121550202, 0.1649422497, -0.2594527602, 0.1607078910, 0.2631136179, -0.4026066661, -0.2799221575, 0.3074890673, -0.1680640578, 0.2598136663, 0.5884353518, -0.2896517217, -0.2836316526, 0.2185853124, 0.0000000000, -0.1972308755, 0.1322111487, 0.3488333225, 0.0000000000, 0.0000000000, 0.4511843026, -0.3454649448, -0.1588869691, 0.0000000000, 0.0000000000, 0.0000000000, 0.1906411946, -0.2788291574, -0.2208479643, 0.1632732451, -0.0000000000, 0.1410276741, 0.4071589112, -0.1781444699, 0.0000000000, 0.0000000000, 0.0000000000, -0.0000000000, 0.0000000000, -0.1252138466, -0.0000000000, -0.0000000000, 0.0000000000, 0.1679071486, -0.0000000000, 0.0000000000, -0.0000000000, -0.0000000000, -0.2305403352, 0.1598963290, -0.0000000000, 0.0000000000, 0.2410092950, -0.3582496941, -0.1446885318, 0.0000000000, -0.1772904545, 0.0000000000, 0.2761318088, -0.2242466807, -0.0000000000, 0.0000000000, -0.0000000000, 0.1833288223, 0.2321681380, 0.0000000000, -0.0000000000, -0.0990135819, -0.2080731094, 0.3044806123, -0.0000000000, 0.0000000000, 0.2262731791, -0.2394655645, -0.3008185029, 0.2256783843, 0.0000000000, -0.0000000000, 0.1867061108, -0.0000000000, -0.1995657384, 0.2352924496, -0.0000000000, 0.0000000000, 0.0000000000, -0.1305410415, -0.1150020882, 0.0000000000, 0.0000000000, 0.0000000000, 0.0000000000, -0.0000000000, -0.0000000000, -0.2330148816, -0.1166244224, 0.2101054788, -0.0000000000, 0.0000000000, 0.2167967260, 0.0000000000, -0.1793167144, 0.2711350024, 0.0000000000, -0.0000000000, 0.1484999806, -0.2056509405, -0.3118056059, -0.0000000000, -0.1481165290, 0.1855007708, 0.1530991942, -0.2038530260, 0.0000000000, -0.0000000000, -0.1749796420, 0.1996778697, 0.4373551309, -0.5788607001, 0.0000000000, -0.0000000000, -0.2742107809, 0.2304096520, 0.5207258463, -0.3258830011, 0.0000000000, 0.1991557330, -0.1642274708, -0.0000000000, 0.3564023972, -0.2240578532, -0.0000000000, -0.0000000000, 0.0000000000, -0.0000000000, -0.0000000000, 0.1803671867, 0.0000000000, -0.1309064627, 0.0000000000, -0.1854055822, -0.2867822051, 0.3677246273, 0.1703562737, -0.1768927723, 0.2306322306, 0.0000000000, 0.4393657148, -0.3745887280, -0.1754402071, -0.0000000000, -0.1146488637, 0.1181083098, 0.1665825397, -0.1141668409, -0.1111672744, -0.0000000000, -0.0000000000, 0.1093996167, -0.0000000000, 0.0000000000, 0.0000000000, -0.0000000000, -0.1431749761, 0.1639547944, -0.0000000000, -0.1179432347, 0.1369295418, -0.2620295286, -0.1741717607, -0.0000000000, -0.0000000000, 0.0000000000, 0.3239949644, -0.2651104927, 0.0000000000, 0.1736041158, -0.0000000000, 0.0000000000, 0.4815885723, -0.2124871612, -0.0000000000, 0.0000000000, -0.0000000000, 0.0000000000, 0.1192247272, -0.2708275318, 0.0000000000, -0.0000000000, -0.1391683370, 0.3223488927, 0.1527853012, 0.0000000000, 0.1932901591, -0.2813670039, -0.3020211458, 0.2851929069, -0.0000000000, 0.0000000000, 0.2515372038, -0.3056635559, -0.2115023732, 0.1175391451, -0.0000000000, 0.0000000000, 0.4184464514, -0.3828087449, -0.2101040632, 0.3043848276, -0.0000000000, 0.0000000000, 0.3824719787, -0.3697680235, -0.2503843307, 0.0000000000, -0.0000000000, 0.0000000000, 0.1518418789, -0.1296211928, -0.1042439863, -0.1157599390, -0.2553975582, 0.3977279067, 0.0000000000, -0.0000000000, 0.1549740583, -0.2662588358, -0.1857735217, 0.1621928662, -0.0000000000, 0.0000000000, 0.3181708157, -0.4085851014, -0.2200543135, 0.1561081260, -0.0000000000, 0.0000000000, 0.7318167090, -0.2796016037, -0.1228980199, 0.1470065266, -0.0000000000, 0.1224238798, 0.4330483079, -0.1679786593, 0.0000000000, 0.0000000000, -0.2615435719, 0.1736484915, 0.0000000000, 0.1224260479, 0.2330175936, -0.2177524567, -0.0000000000, 0.1162626147, 0.0000000000, 0.0000000000, 0.3538951576, -0.3819600940, 0.0000000000, -0.0000000000, -0.1352383345, 0.0000000000, 0.4380423129, -0.5567271709, 0.0000000000, 0.0000000000, -0.0000000000, 0.0000000000, 0.3443502784, -0.2523538172, 0.0000000000, 0.0000000000, -0.0000000000, -0.3031336665, -0.0000000000, 0.0000000000, 0.0000000000, 0.1498637348, 0.2218729258, -0.2177325487, -0.0000000000, 0.0000000000, 0.0000000000, 0.1320557147, 0.2149086446, -0.2606412470, -0.0000000000, 0.0000000000, -0.1194420680, -0.0000000000, 0.1722575575, -0.0000000000, -0.1836708486, 0.1468479037, -0.0000000000, -0.0000000000, -0.0000000000, 0.0000000000, -0.0000000000, -0.1557764709, 0.0000000000, -0.0000000000, -0.1362333894, 0.1478771865, 0.2370960116, -0.6185630560, 0.0000000000, -0.0000000000, -0.1374259442, 0.0000000000, 0.6264390349, -0.5132790208, 0.0000000000, 0.1327146739, -0.0000000000, 0.0000000000, 0.3537372649, -0.3372878134, -0.1914059967, 0.1363854259, -0.1255023330, 0.0000000000, 0.2689971626, -0.1599205881, -0.1430306286, 0.0000000000, -0.0000000000, 0.1386656612, 0.0000000000, -0.0000000000, -0.0000000000, 0.0000000000, -0.1668253541, -0.0000000000, 0.0000000000, 0.1970307976, 0.1897075623, -0.2802475691, 0.0000000000, -0.0000000000, -0.2803308368, -0.0000000000, 0.2490247935, -0.3364481628, -0.1162346676, 0.1478784233, -0.0000000000, 0.1178598106, 0.2275858074, -0.2047439814, 0.0000000000, -0.0000000000, -0.1260440201, 0.0000000000, 0.0000000000, -0.0000000000, 0.0000000000, 0.0000000000, -0.0000000000, -0.0000000000, 0.0000000000, -0.0000000000, 0.1965076327, -0.1515178084, -0.0000000000, 0.0000000000, -0.2876308858, 0.2139435560, 0.1983851492, -0.1678287238, 0.0000000000, -0.0000000000, -0.2087924182, 0.1531011164, -0.0000000000, -0.2041656673, 0.0000000000, -0.0000000000, -0.1774526536, 0.1607027352, 0.1611956358, -0.0000000000, 0.0000000000, 0.0000000000, -0.0000000000, 0.0000000000, 0.0000000000, -0.0000000000, -0.0000000000, 0.0968497470, 0.0000000000, -0.0000000000, 0.0000000000, 0.1674207151, -0.0000000000, -0.2368609160, 0.0000000000, -0.0000000000, -0.1784505993, 0.1368256062, 0.1804888695, -0.0000000000, 0.4776794016, -0.2043904364, -0.2229571491, 0.2818025351, 0.1526850164, 0.0000000000, 0.1643362939, 0.0000000000, 0.0000000000, -0.0000000000, -0.0000000000, 0.0000000000, -0.2134665549, 0.2870959342, 0.2364170998, -0.2761577964, -0.0000000000, 0.1768436432, -0.1693861336, 0.0000000000, 0.3707942963, -0.7954660654, 0.0000000000, 0.2293356061, -0.2072494924, 0.1459569782, 0.9349602461, -0.6800513268, -0.2791543603, 0.1853172183, -0.0000000000, 0.0000000000, 0.7022218108, -0.2178170234, -0.2708632350, 0.2841266096, -0.0000000000, 0.0000000000, 0.1113414168, -0.0000000000, -0.2114857882, -0.0000000000, -0.0000000000, -0.3019103408, -0.1636350900, 0.2079437375, 0.1066793874, -0.2399834245, -0.0000000000, 0.1659440696, -0.2199926376, 0.1645069122, 0.3939836919, -0.4411204457, -0.2014636546, 0.2777636349, 0.0000000000, 0.0000000000, 0.4802894890, -0.4786303043, -0.2519432902, 0.2298455685, -0.0000000000, -0.1760655046, -0.0000000000, 0.1388610601, -0.1043390855, 0.1336688548, 0.2997289598, -0.1833887100, -0.1098932549, 0.2070128173, 0.0000000000, -0.1762699485, 0.1345925778, -0.0955638215, -0.2248210162, 0.2865423858, 0.2121507972, -0.5057629347, 0.0000000000, 0.1255676150, -0.2649878860, 0.1616329998, 0.4678074419, -0.4007963836, -0.2021336854, 0.2471321225, -0.0000000000, 0.0000000000, 0.2508295476, -0.4461387396, -0.3479115963, 0.4046800733, -0.0000000000, -0.2001933753, 0.3225905895, -0.1412141919, -0.4950734973, 0.1939493418, 0.1353261322, 0.0000000000, 0.0000000000, 0.1653698534, -0.0000000000, -0.1367196292, 0.1859093159, -0.1748401672, -0.2955921888, 0.1881538928, -0.0000000000, -0.2885030806, 0.0000000000, 0.1267600656, -0.0000000000, 0.2163815647, 0.2959890068, -0.3658095002, 0.0000000000, 0.3296715617, -0.0000000000, 0.0000000000, 0.4274877906, -0.3983987570, -0.3260439634, 0.1249843910, -0.0000000000, 0.1228333712, -0.0000000000, 0.0000000000, 0.0000000000, -0.0000000000, -0.1848687977, 0.1535717249, -0.0000000000, 0.0000000000, 0.0000000000, -0.0000000000, -0.0000000000, 0.0000000000, 0.0000000000, -0.2563365698, -0.1759330630, 0.1404594332, -0.0000000000, 0.0000000000, -0.0000000000, 0.0000000000, -0.1354531795, 0.3206345737, -0.0000000000, 0.0000000000, 0.1392242759, 0.0000000000, -0.1685718447, 0.1264046580, -0.0000000000, 0.0000000000, -0.0000000000, -0.2838892937, -0.1815067530, 0.1459490210, -0.0000000000, -0.0000000000, 0.2447273433, -0.2921753228, -0.0000000000, 0.1978352219, 0.0000000000, -0.0000000000, 0.4026091397, -0.3530133665, -0.0000000000, 0.0000000000, -0.1663144231, 0.1449845880, 0.2260196805, -0.2132526785, -0.0000000000, -0.0000000000, -0.5142994523, 0.4604980648, -0.0000000000, 0.0000000000, 0.3230209947, -0.2991249561, -0.1770290136, 0.1372346282, 0.0000000000, 0.0000000000, 0.1668054163, -0.3321825564, -0.2583719194, -0.0000000000, -0.0000000000, 0.1481178105, 0.3681353927, -0.1995639503, -0.0000000000, -0.0000000000, -0.0000000000, 0.1490397304, 0.1773912162, -0.1544462740, 0.0000000000, -0.1354281604, -0.5537468791, 0.4594491422, -0.0000000000, 0.0000000000, 0.1694622487, -0.2080899179, -0.3161998391, 0.1881656051, 0.0000000000, -0.0000000000, 0.2176120132, -0.0000000000, -0.1398107111, 0.2065958977, 0.0000000000, -0.0000000000, 0.1483925283, -0.1865841448, -0.2206343412, -0.0000000000, 0.0000000000, 0.1852434874, 0.1540964246, 0.0000000000, -0.0000000000, -0.0000000000, -0.1286655515, -0.0000000000, -0.0000000000, 0.0000000000, 0.0000000000, -0.0000000000, 0.0000000000, 0.0000000000, -0.0000000000, 0.0000000000, 0.0000000000, -0.1508294344, -0.1780136079, 0.2074981779, -0.0000000000, -0.0000000000, 0.2307193577, -0.1705013663, -0.0000000000, 0.0000000000, 0.0000000000, -0.0000000000, 0.0000000000, -0.2283603102, -0.1898236722, -0.0000000000, -0.0000000000, -0.0000000000, 0.1677522808, -0.3551413119, -0.1085969955, 0.1101595536, -0.0000000000, 0.1521008015, 0.4161800742, -0.2565538287, 0.0000000000, -0.0000000000, 0.0000000000, 0.2684741318, 0.3728721738, -0.2229617536, 0.0000000000, -0.1226031929, -0.3932273388, 0.3663697839, -0.0000000000, 0.0000000000, 0.1467641145, -0.0000000000, -0.3484931290, 0.4098619223, 0.1135654524, 0.0000000000, 0.2030559033, -0.1572944671, -0.1812674701, 0.1498875618, -0.0000000000, -0.0000000000, 0.0000000000, -0.2697906494, -0.2012795508, 0.0000000000, 0.0000000000, 0.1510790139, 0.1749173552, -0.0000000000, -0.0000000000, 0.0000000000, -0.0000000000, 0.0000000000, 0.1961839944, -0.0000000000, -0.0000000000, -0.1567328572, -0.2769168913, 0.0000000000, -0.1173485890, -0.0000000000, 0.1421036273, -0.1950788051, -0.0000000000, -0.0000000000, 0.0000000000, 0.2244033813, 0.2522617280, -0.1480033100, 0.0000000000, -0.1591453999, -0.2812198699, 0.2308168113, -0.0000000000, -0.1202763766, 0.0000000000, -0.1742052436, -0.3082418144, 0.2694613636, -0.0000000000, 0.0000000000, 0.1858008057, -0.0000000000, -0.2433353215, 0.3005032539, -0.0000000000, 0.0000000000, 0.2304694206, -0.2594287097, -0.1365502626, -0.0000000000, -0.1298708469, 0.0000000000, -0.0000000000, -0.0000000000, -0.0000000000, -0.0000000000, -0.0000000000, 0.1068327054, 0.1262403131, 0.0000000000, 0.0000000000, 0.0000000000, 0.0000000000, 0.0000000000, 0.0000000000, -0.1360964328, -0.1392450035, -0.0000000000, -0.0000000000, -0.0000000000, -0.0000000000, -0.0000000000, -0.0000000000, 0.0000000000, 0.1229761168, 0.0000000000, 0.1280976385, -0.0000000000, 0.0000000000, 0.0000000000, -0.0000000000, 0.0000000000, 0.0000000000, -0.0000000000, -0.0000000000, 0.1285964847, 0.1650777012, 0.0000000000, 0.0000000000, -0.0000000000, 0.0000000000, 0.2324160486, 0.1925988197, 0.0000000000, 0.0000000000, -0.1761897206, -0.2311309129, 0.0000000000, -0.1533855796, 0.2016283572, 0.1442022324, -0.1560700387, -0.0000000000, 0.0000000000, -0.1685337126, 0.1593123078, 0.0000000000, -0.0000000000, -0.0000000000, -0.0000000000, -0.0000000000, 0.1222990304, -0.0000000000, -0.1619865447, 0.0000000000, 0.0000000000, -0.2325898260, 0.2970462739, 0.4219915271, -0.3495509326, 0.0000000000, -0.0000000000, -0.1903907359, 0.1083915383, 0.1389703602, -0.0000000000, -0.1394247860, 0.2062899768, -0.0000000000, 0.0000000000, 0.0000000000, 0.0000000000, 0.0000000000, -0.1342005879, 0.0000000000, 0.0000000000, -0.0000000000, 0.0000000000, 0.2490868568, -0.5305514336, -0.1433468312, -0.0000000000, -0.2506308258, 0.6121664047, 0.4977771044, -0.2849715650, 0.0000000000, 0.0000000000, -0.4031849802, 0.0000000000, 0.1956238300, -0.3188857138, -0.0000000000, -0.0000000000, -0.0000000000, -0.1264198720, -0.0000000000, -0.2479841709, -0.4541363716, 0.3482975662, 0.1691148877, 0.0000000000, 0.3940031826, 0.0000000000, 0.0000000000, -0.1042660549, 0.0000000000, -0.1525826603, -0.2390157729, 0.1741714776, -0.0000000000, -0.0000000000, -0.0000000000, -0.0000000000, -0.0000000000, 0.2259639204, -0.0000000000, 0.1594379097, 0.2471117377, 0.0000000000, 0.0000000000, 0.0000000000, -0.1780369580, 0.0000000000, 0.0000000000, -0.2344182581, -0.1880830973, -0.0000000000, -0.1054499075, -0.0000000000, -0.0000000000, 0.0929881930, 0.1777346879, 0.0000000000, 0.0000000000, 0.1223571971, -0.0000000000, 0.0000000000, 0.0000000000, -0.1811324954, 0.0000000000, -0.0000000000, -0.1229906157, -0.1302218139, -0.1324051768, 0.1521053016, 0.0000000000, -0.0000000000, 0.2623891234, 0.1298582703, -0.0000000000, 0.2029318810, 0.2291239798, -0.3102045655, 0.0000000000, -0.3662576377, -0.4774147868, 0.0000000000, 0.0000000000, -0.0000000000, 0.2931156158, -0.1334462017, -0.1640521139, 0.1192115098, -0.0000000000, -0.4590035677, -0.0000000000, -0.0000000000, -0.2548888922, 0.2212464064, 0.4519981742, -0.3160566390, -0.1209599897, 0.2324119210, 0.0000000000, -0.0000000000, 0.2700221837, -0.0000000000, -0.2842696607, 0.2417569011, 0.1556191593, -0.2191018611, 0.0000000000, 0.1340799183, -0.1073862836, -0.2429747283, 0.0000000000, -0.0000000000, -0.2326931953, 0.3862882555, 0.5575354099, -0.4603376985, 0.0000000000, 0.1413335800, -0.2674964070, 0.1089674383, 0.4770426750, -0.6727328300, -0.2737228572, 0.2354826629, -0.0000000000, 0.0000000000, 0.4670677781, -0.1536349058, -0.2622632384, 0.3775888085, 0.1465996057, 0.0000000000, 0.1226662546, -0.0000000000, -0.2393955588, 0.0000000000, -0.0000000000, -0.1169554889, 0.0000000000, 0.1269986480, 0.1015687287, -0.1331461072, 0.0000000000, -0.0000000000, 0.0000000000, 0.1446938515, 0.1797606498, -0.2749226391, 0.0000000000, -0.0000000000, -0.2508214414, 0.2913091481, 0.3079656959, -0.3629722893, 0.0000000000, -0.0000000000, -0.3251052797, 0.2992436290, 0.2158743590, 0.0000000000, 0.0000000000, -0.0000000000, -0.1550242156, 0.0000000000, 0.0000000000, -0.0000000000, 0.0000000000, -0.0000000000, -0.0000000000, 0.0000000000, 0.0000000000, -0.0000000000, 0.0000000000, -0.2014669329, -0.0000000000, 0.1969502717, 0.0000000000, 0.2090665698, 0.3532251418, -0.3417432010, -0.1258535087, -0.0000000000, -0.3255756497, 0.2175318450, 0.3555108905, -0.3114616871, 0.0000000000, 0.1371339113, -0.0000000000, 0.0000000000, 0.2013375610, -0.0000000000, 0.0000000000, 0.2508746684, 0.1271378994, 0.0000000000, 0.1310749203, -0.0000000000, -0.3783438206, 0.0000000000, -0.0000000000, -0.0000000000, 0.0000000000, 0.2312855572, 0.1772518456, -0.1709686220, 0.1123699173, -0.0000000000, -0.1797376126, 0.1434510350, 0.2984125912, -0.0000000000, 0.2464675754, -0.2433169633, 0.0000000000, -0.0000000000, -0.3386137784, 0.2448345423, 0.2446653694, -0.2500042617, 0.0000000000, -0.0000000000, -0.1604508758, 0.0000000000, 0.2423959076, -0.2219154239, -0.1981002986, 0.1320440918, -0.1587688029, 0.2233077586, 0.2790992856, -0.2232686430, 0.0000000000, -0.0000000000, -0.2123378813, 0.1678728163, -0.0000000000, 0.0000000000, 0.1713842899, -0.1480023116, 0.0000000000, -0.0000000000, -0.0000000000, 0.0000000000, 0.0000000000, -0.1920900792, -0.1228081286, 0.1184553653, -0.0000000000, 0.3468927741, 0.4909679294, -0.3331281245, 0.0000000000, -0.1841970682, -0.5860210061, 0.7032616138, 0.2624594271, -0.1451867074, -0.0000000000, 0.0000000000, -0.5396181941, 0.3336573243, 0.0991729274, 0.0000000000, 0.1412774622, 0.0000000000, -0.1554025412, 0.1325066239, -0.0000000000, 0.0000000000, 0.1437773108, -0.4278680682, -0.1106896624, -0.0000000000, -0.3388971686, 0.2065877616, 0.3735059798, -0.3047883511, 0.0000000000, -0.0000000000, -0.2007786781, 0.3985757232, 0.1743827313, -0.0000000000, 0.1748522669, -0.2713052630, -0.3892639279, 0.4506580532, 0.0000000000, -0.0000000000, 0.1145723462, -0.1995481551, -0.5002319813, 0.3688393235, -0.0000000000, 0.0000000000, 0.4658363163, -0.3849965036, -0.1881173998, 0.0000000000, 0.0000000000, 0.2490103394, 0.2797059715, -0.1409570128, 0.0000000000, -0.1615605503, -0.4115660489, 0.3320940435, 0.1001795754, -0.1370566040, 0.0000000000, -0.0000000000, -0.2587943077, 0.4697069526, 0.1888168454, -0.1881114244, 0.0000000000, -0.1421017945, -0.5094724298, 0.4170282483, 0.1222244203, 0.0000000000, 0.1810408086, -0.3568402827, -0.2875626683, 0.1730402857, -0.0000000000, 0.0000000000, 0.3636012375, -0.1884792298, -0.1652747989, 0.1308606267, -0.0000000000, 0.0000000000, 0.0000000000, -0.0000000000, 0.0000000000, -0.0000000000, -0.0000000000, -0.0000000000, -0.1298367828, 0.0000000000, -0.0000000000, 0.0000000000, 0.0000000000, -0.2374899983, -0.0000000000, 0.1665766537, 0.0000000000, 0.0000000000, 0.4255305827, -0.4280385971, 0.0000000000, -0.0000000000, 0.0000000000, -0.0000000000, 0.2397792488, -0.2145474851, -0.0000000000, 0.0000000000, 0.0000000000, 0.2615305781, 0.1633040458, 0.0000000000, 0.0000000000, 0.0000000000, -0.2137418687, 0.1961719096, -0.0000000000, 0.0000000000, 0.1406959891, -0.1992347091, -0.1438911110, -0.0000000000, -0.0000000000, 0.0000000000, 0.1946187019, -0.1859740764, 0.0000000000, 0.0000000000, -0.0000000000, 0.0000000000, 0.3072939217, -0.4149633944, 0.0000000000, -0.0000000000, -0.2399550527, 0.3297564089, 0.3116725087, -0.1942697763, -0.0000000000, 0.0000000000, -0.2635176480, 0.4373545945, 0.1208965704, 0.0000000000, -0.0000000000, -0.1584547609, -0.3322787881, 0.1475282162, -0.0000000000, 0.0000000000, 0.1596149206, -0.1889523715, -0.1464234591, -0.0000000000, -0.0000000000, 0.1217103377, 0.2536196113, -0.2874819934, 0.0000000000, -0.0000000000, -0.1530693620, 0.2157407105, 0.1957475245, -0.1623241007, 0.0000000000, -0.0000000000, -0.3274438977, 0.3513154387, -0.0000000000, 0.0000000000, 0.1496082097, -0.1532400250, -0.3960497975, 0.4047819078, -0.0000000000, 0.0000000000, 0.2083834559, -0.2232097238, -0.2018271834, 0.0000000000, -0.0000000000, 0.0000000000, 0.1310679466, -0.1415388137, -0.0000000000, 0.0000000000, 0.0000000000, -0.0000000000, 0.0000000000, -0.0000000000, 0.1969701946, 0.0000000000, -0.0000000000, -0.0000000000, 0.0000000000, 0.0000000000, 0.0000000000, -0.1223176345, 0.0000000000, 0.2486231029, -0.0000000000, 0.0000000000, 0.1553872377, -0.1471746117, -0.2641690969, 0.2075521648, -0.0000000000, 0.0000000000, 0.1474906355, -0.0000000000, 0.0000000000, 0.0000000000, -0.0000000000, 0.0000000000, 0.0000000000, -0.0000000000, 0.2422219366, -0.3037174642, -0.1277250946, 0.1573614031, 0.0000000000, -0.0000000000, 0.1935815960, 0.0000000000, -0.2587753534, 0.2895129323, 0.0000000000, -0.2196796536, -0.0000000000, 0.0000000000, -0.4447977841, 0.4418656826, 0.2515470386, -0.1711079925, 0.0000000000, -0.0000000000, -0.2166061848, 0.1819440275, -0.0000000000, 0.0000000000, 0.0000000000, -0.0000000000, 0.0000000000, 0.0000000000, -0.0000000000, 0.0000000000, 0.0000000000, -0.0000000000, -0.0000000000, 0.0000000000, -0.0000000000, 0.1495563537, 0.0000000000, -0.3212051690, -0.0000000000, -0.1378809959, -0.2926234901, 0.2939764261, 0.4214940667, -0.1691951752, 0.1459996700, -0.0000000000, -0.2031711340, 0.1306875646, 0.1182156950, -0.1694891155, 0.0000000000, 0.1055139825, -0.1689409912, 0.0000000000, 0.1464551836, 0.0000000000, 0.0000000000, -0.0000000000, -0.0000000000, -0.1189365238, -0.0000000000, 0.0000000000, 0.0000000000, -0.0000000000, 0.0974295214, 0.0000000000, -0.2715463340, 0.4382462204, 0.0000000000, -0.1567611992, 0.1849358678, -0.1460698843, -0.3633826673, 0.1459769309, 0.1135796160, -0.2144471109, -0.0000000000, 0.2871633172, 0.0000000000, -0.0000000000, 0.3408944011, -0.1557384580, -0.1327867806, -0.0000000000, 0.0000000000, -0.2841264009, -0.0000000000, 0.0000000000, -0.2608005702, 0.3390288949, 0.4421415627, -0.2678143978, 0.0000000000, -0.0000000000, -0.2677922249, 0.1332876831, 0.2554397285, -0.2992315590, -0.2542433739, 0.2187936902, -0.1097742692, 0.0000000000, 0.3190706670, -0.0000000000, -0.1204768717, 0.1352471560, -0.0000000000, -0.2532478571, 0.0000000000, -0.0000000000, -0.1521847695, 0.0000000000, 0.1947809607, 0.0000000000, 0.0000000000, 0.1727120131, -0.0000000000, -0.1416509002, 0.2488088012, -0.2791088521, -0.2290726602, 0.1273339391, -0.0000000000, 0.0000000000, 0.1323328465, -0.0000000000, 0.0000000000, -0.3372137845, 0.0000000000, -0.0000000000, -0.0000000000, 0.0000000000, 0.3331250846, -0.2602660060, 0.0000000000, 0.0000000000, -0.0000000000, 0.0000000000, 0.2806720436, -0.2205798030, -0.0000000000, 0.0000000000, -0.0000000000, 0.1395962834, 0.2098917812, -0.1853614300, -0.0000000000, 0.0000000000, -0.3236469030, 0.3788809478, 0.2195974737, -0.1053533107, -0.0000000000, -0.1316997707, -0.2462604642, 0.1665022373, 0.0000000000, -0.0000000000, 0.1942303181, -0.2553785741, -0.1156998798, 0.1063271984, 0.0000000000, -0.0000000000, 0.2711937726, -0.2077898085, 0.0000000000, -0.0000000000, 0.0000000000, 0.2074377835, 0.2271370143, -0.1877191514, 0.0000000000, -0.0000000000, -0.4818097353, 0.5665160418, -0.0000000000, 0.0000000000, 0.0000000000, -0.0000000000, -0.3704322577, 0.3298066854, -0.0000000000, 0.0000000000, 0.1725267023, -0.1746363193, -0.1403008252, 0.0000000000, -0.0000000000, -0.0000000000, 0.2039288282, -0.2306303531, -0.1673626453, 0.0000000000, 0.0000000000, 0.1204822361, 0.2862262130, -0.2861180604, -0.0000000000, 0.0000000000, -0.1467111111, 0.1388178915, 0.2196728140, 0.0000000000, -0.0000000000, -0.1290216446, -0.2737635374, 0.2489798963, -0.0000000000, 0.0000000000, -0.0000000000, 0.0000000000, -0.2519047558, 0.3425433338, -0.0000000000, 0.0000000000, 0.1160262674, -0.1180694401, -0.1707165241, -0.0000000000, -0.0000000000, 0.0000000000, 0.1481928229, -0.1823373884, -0.1086993814, -0.0000000000, -0.0000000000, 0.1333304197, 0.3567575216, -0.2316980213, 0.0000000000, 0.0000000000, -0.0000000000, 0.1629695296, 0.1954017133, -0.0000000000, -0.0000000000, 0.0000000000, -0.2038702816, 0.1921868920, 0.0000000000, -0.0000000000, -0.0000000000, -0.1287472248, -0.1548087597, 0.2264860421, -0.0000000000, 0.0000000000, 0.1456708759, -0.1588843465, -0.1829570532, 0.0000000000, 0.0000000000, -0.0000000000, 0.0000000000, 0.0000000000, 0.0000000000, -0.2068138868, -0.1951342523, 0.0000000000, -0.2547622323, 0.2425172031, 0.2267664373, 0.0000000000, 0.1540658176, 0.0000000000, 0.0000000000, -0.3080440760, -0.1084033474, -0.0000000000, -0.2385924906, 0.1845306605, 0.1308393329, -0.1933926940, -0.0000000000, 0.1870847642, 0.0000000000, 0.1871837527, 0.4536286891, -0.3026957810, 0.0000000000, 0.0000000000, 0.0000000000, -0.0000000000, 0.1965337396, -0.3105713427, -0.2407388985, 0.0000000000, -0.1966156214, 0.3216899037, 0.2794328630, -0.0000000000, 0.1352973580, 0.0000000000, 0.0000000000, 0.0000000000, 0.0000000000, -0.0000000000, -0.0000000000, 0.0000000000, -0.1337561607, -0.1439459473, -0.1123179197, -0.0000000000, -0.0000000000, 0.1379754543, 0.1128886119, -0.0000000000, -0.0000000000, -0.0000000000, -0.0000000000, 0.0000000000, 0.1560683697, 0.0000000000, 0.0000000000, 0.0000000000, 0.0000000000, -0.2371896058, 0.0000000000, -0.1453221887, -0.4009921849, 0.4121595621, -0.0000000000, 0.0000000000, 0.2306246310, 0.0000000000, 0.0000000000, 0.1863914579, 0.0000000000, -0.1077750623, 0.0000000000, -0.2000897080, -0.3078950942, 0.2377067059, -0.0000000000, 0.0000000000, 0.2979449332, -0.3704450428, -0.3053823113, 0.2932615280, -0.0000000000, -0.0000000000, 0.5500417352, -0.1630570590, -0.1000052318, 0.0000000000, 0.0000000000, -0.0000000000, 0.0000000000, -0.2129469663, -0.0000000000, -0.2161178291, -0.3094161153, 0.1639073044, -0.0000000000, 0.2372754365, 0.3759825230, -0.1480428874, 0.0000000000, -0.0000000000, -0.0000000000, 0.0000000000, -0.0000000000, -0.2012276649, 0.0000000000, -0.0000000000, -0.2375707626, 0.2134149671, -0.0000000000, 0.0000000000, 0.0000000000, -0.0000000000, -0.0000000000, 0.1775683910, -0.0000000000, 0.0977633595, 0.2176354825, -0.2544826567, -0.0000000000, 0.0000000000, -0.1103831008, 0.0000000000, 0.0000000000, 0.2688899934, -0.0000000000, 0.0000000000, 0.2799394429, -0.3877975941, -0.2585783899, 0.3274111748, -0.0000000000, 0.0000000000, 0.2579589486, -0.1657955796, -0.3130216897, 0.2554814517, -0.0000000000, 0.0000000000, 0.1468576193, -0.1720766276, 0.0000000000, 0.0000000000, 0.0000000000, 0.1106496528, 0.0000000000, -0.0000000000, 0.1027254388, -0.1290412694, -0.0000000000, 0.0911735818, -0.0000000000, 0.0000000000, -0.0000000000, -0.1221437305, -0.1679544002, 0.3305966854, -0.0000000000, 0.0000000000, 0.2913570702, -0.3031667471, -0.3770769536, 0.2298030853, -0.0000000000, 0.1485216469, 0.2733126879, -0.2449410260, -0.1618877947, -0.0000000000, -0.1779268086, 0.0000000000, 0.2391077578, -0.1813614368, 0.0000000000, 0.0000000000, 0.0000000000, -0.0000000000, -0.0000000000, 0.0000000000, -0.0000000000, -0.0000000000, 0.0000000000, 0.0000000000, -0.1440775245, 0.0000000000, 0.0948464796, -0.0000000000, -0.0000000000, 0.3269293010, -0.0000000000, 0.0000000000, 0.1440649629, -0.1434862018, -0.5095956922, 0.3828432560, -0.0000000000, 0.0000000000, 0.0000000000, -0.0000000000, -0.1836854517, 0.0000000000, 0.0000000000, -0.0000000000, -0.0000000000, -0.0000000000, -0.0000000000, 0.0000000000, 0.0000000000, -0.0000000000, 0.0000000000, 0.0000000000, -0.0000000000, -0.1864048988, 0.0000000000, 0.1378330588, -0.0000000000, 0.0000000000, 0.2159894705, -0.2221842706, -0.1348342896, 0.1886450499, -0.0000000000, 0.0000000000, 0.3439086974, -0.3548763692, -0.2246215641, 0.3240952194, -0.0000000000, -0.0000000000, 0.3178051114, -0.2356545478, -0.3896076381, 0.2523119152, 0.0000000000, -0.0000000000, 0.1680206805, 0.0000000000, -0.0000000000, -0.0000000000, 0.0000000000, -0.0000000000, -0.1384271234, 0.2349387109, 0.0000000000, -0.1035426185, 0.0000000000, -0.1109940037, -0.3587762117, 0.5962972641, 0.1653874367, -0.2723231316, -0.0000000000, -0.1464890987, -0.0000000000, -0.0000000000, -0.0000000000, -0.0000000000, -0.0000000000, 0.1053056270, -0.0000000000, 0.0000000000, 0.1104933247, -0.2133312225, 0.0000000000, -0.0000000000, -0.2281205207, 0.2711709440, 0.0000000000, -0.0000000000, -0.0000000000, 0.0000000000, -0.0000000000, 0.0000000000, 0.0000000000, -0.0000000000, -0.0000000000, 0.0000000000, -0.0000000000, 0.0000000000, 0.0000000000, -0.2033724189, -0.1865754426, 0.0000000000, -0.2009899914, 0.2181479037, 0.2766966820, -0.0000000000, 0.0000000000, -0.0000000000, -0.0000000000, 0.0000000000, 0.0000000000, -0.0000000000, -0.0000000000, -0.0000000000, -0.0000000000, 0.0000000000, 0.0000000000, 0.0000000000, 0.0000000000, -0.0340708569, -0.0000000000, 0.0000000000, -0.0000000000, 0.1709895134, 0.0000000000, -0.0000000000, -0.0000000000, 0.0000000000, -0.2681974471, 0.3290330768, 0.0000000000, -0.0000000000, 0.1680134088, -0.2461579889, -0.1574376971, 0.0000000000, -0.1467003822, -0.0000000000, 0.2574822903, -0.1324456185, -0.0000000000, -0.0000000000, 0.0000000000, 0.1158028841, 0.3023717403, -0.4109322429, -0.0000000000, -0.0000000000, -0.2159536481, 0.2798778415, 0.1375052482, 0.0000000000, 0.1113564447, -0.0000000000, -0.3871718943, 0.5180468559, -0.0000000000, 0.0000000000, 0.1630945355, -0.1579542607, -0.1000473872, -0.1509609967, -0.0000000000, 0.0000000000, 0.0000000000, 0.0000000000, 0.0000000000, 0.0000000000, 0.0000000000, 0.0000000000, 0.0000000000, -0.0000000000, 0.0000000000, -0.1484999061, -0.2007306218, 0.2651429176, -0.0000000000, -0.0000000000, 0.2700538337, -0.3549865782, -0.3068624735, 0.3086067140, -0.1949158907, 0.2240555584, 0.3409187496, -0.1588677913, 0.0000000000, -0.0000000000, -0.0000000000, -0.0000000000, 0.0865341797, -0.0000000000, -0.2329542041, 0.3521955013, -0.0000000000, 0.0000000000, 0.1326512396, -0.1182216629, -0.2290347666, 0.0000000000, 0.0000000000, -0.0000000000, -0.1181211025, 0.1150202081, -0.0000000000, 0.0000000000, 0.1414652616, -0.0000000000, -0.1243429482, 0.2304821014, -0.0000000000, -0.2438779026, -0.0000000000, 0.0000000000, -0.3554551005, 0.5090002418, 0.2260357291, -0.1248841211, 0.0000000000, -0.0000000000, -0.5374909639, 0.3981194496, 0.1590475142, -0.1821810901, 0.0000000000, -0.0000000000, -0.4864045978, 0.2868043482, 0.1911442727, -0.1429911554, 0.0000000000, -0.0000000000, 0.0000000000, 0.1689475030, 0.1312238276, -0.0000000000, -0.0000000000, -0.2908512056, -0.2172041237, 0.1556834877, 0.0000000000, -0.0000000000, 0.2695775032, -0.2598401308, -0.1223817766, 0.1571740508, 0.0000000000, -0.0000000000, 0.1224041581, 0.0000000000, -0.1341689378, -0.0000000000, 0.0000000000, -0.0000000000, -0.0000000000, 0.0000000000, 0.0000000000, -0.0000000000, 0.1769330651, -0.0000000000, -0.0000000000, 0.0000000000, 0.0000000000, -0.0000000000, 0.0000000000, -0.1718847156, -0.0000000000, 0.0000000000, 0.0000000000, -0.0000000000, 0.2167848498, -0.2039791942, -0.1630694568, 0.2382172048, -0.0000000000, 0.0000000000, 0.1538741291, -0.1875037253, -0.5049301982, 0.4253863692, -0.0000000000, -0.1206439361, 0.0000000000, -0.0000000000, -0.2748644948, 0.1695030183, -0.0000000000, 0.0000000000, 0.1385294646, -0.0000000000, 0.0000000000, -0.0000000000, -0.0000000000, 0.0000000000, -0.0000000000, -0.1871005744, 0.0000000000, -0.0000000000, -0.0000000000, 0.1945615560, 0.4074890614, 0.0000000000, 0.0000000000, -0.0000000000, -0.1428667903, 0.0000000000, 0.2846247554, -0.4151363075, 0.0000000000, -0.0000000000, -0.1378238797, 0.2132306993, 0.2555621564, -0.1559624076, 0.0000000000, 0.1063700542, -0.0000000000, 0.0000000000, 0.1632992178, -0.1426090300, -0.1347790211, 0.1235496253, 0.1018565223, 0.0000000000, 0.0000000000, -0.0000000000, 0.0000000000, 0.1339138597, -0.1241409183, 0.0000000000, 0.4275587201, -0.3996827900, -0.2248399407, 0.1571136415, -0.0000000000, 0.0000000000, 0.3285748959, -0.3276241124, -0.2010451257, 0.0000000000, 0.0000000000, -0.0000000000, 0.1844670624, -0.0000000000, -0.0000000000, 0.0000000000, 0.0000000000, -0.0000000000, 0.0000000000, 0.0000000000, -0.0000000000, -0.1832333505, -0.1877634376, 0.2903107703, -0.0000000000, 0.0000000000, 0.2210087776, -0.1465880573, -0.2599524558, 0.1592743099, -0.0000000000, 0.0000000000, 0.1564460695, -0.1230804771, -0.1701189429, 0.1832168847, 0.0000000000, 0.0000000000, 0.1169141233, -0.2148305774, -0.2001211345, 0.0000000000, -0.0000000000, -0.0000000000, 0.2257916778, -0.0000000000, -0.0000000000, 0.0000000000, 0.0000000000, -0.0000000000, 0.0000000000, 0.0000000000, -0.0000000000, -0.2107381821, -0.1522433907, -0.0000000000, -0.1477180421, 0.0000000000, 0.1250636876, -0.0000000000, 0.0000000000, 0.3717339337, -0.0000000000, 0.0000000000, 0.2197114378, -0.4011138678, -0.2451454699, 0.0000000000, -0.1372135431, 0.0000000000, 0.1365713477, -0.0000000000, -0.0000000000, 0.0000000000, -0.0000000000, -0.0000000000, 0.1080141291, 0.2920457423, -0.0000000000, -0.1219860613, 0.0000000000, -0.2585943043, -0.2733987272, 0.1582043171, -0.0000000000, -0.2027021050, 0.0000000000, -0.0000000000, -0.2725470364, 0.2256888002, 0.1759997904, -0.0000000000, 0.1089304313, 0.0000000000, 0.0000000000, 0.1603832692, 0.2530643642, -0.2719788253, -0.0000000000, 0.0000000000, -0.1671590507, -0.0000000000, 0.1410641074, -0.2150122225, -0.0000000000, 0.0000000000, 0.0000000000, 0.1734676063, 0.4185706675, 0.0000000000, -0.0000000000, 0.0000000000, 0.0000000000, -0.0000000000, -0.0000000000, 0.1465967149, -0.0000000000, -0.3378688097, 0.0000000000, -0.0000000000, -0.4811442792, 0.7322762609, 0.5424762964, -0.3756020665, 0.4190168679, 0.0000000000, 0.3736296296, -0.2483852804, -0.1380588710, 0.0000000000, -0.1458345205, 0.2712572813, 0.2384692281, -0.0000000000, -0.0000000000, -0.0000000000, -0.0000000000, 0.1592059880, -0.0000000000, 0.0000000000, 0.0000000000, -0.1369637102, -0.2606444061, 0.2809437513, 0.1638913006, -0.1791257411, 0.0000000000, -0.1329761744, -0.3490275741, 0.3195157349, -0.0000000000, 0.0000000000, 0.5502653122, -0.5569376945, -0.2135680616, -0.0000000000, -0.1604079902, 0.0000000000, 0.2946854830, -0.2342491597, -0.1481833309, 0.0000000000, -0.0000000000, 0.0000000000, 0.1887639612, -0.1323686540, 0.0000000000, -0.0000000000, -0.1975163966, 0.2281741351, -0.0000000000, -0.0000000000, 0.1540724486, -0.2515956163, -0.3175952435, 0.1438250393, -0.0000000000, 0.0000000000, 0.2389750183, -0.2482062429, -0.1914263815, 0.2401514649, -0.0000000000, 0.1194440573, 0.4706716537, -0.5990638733, -0.1919865161, 0.2174721509, -0.1223146170, 0.1877101064, 0.8358647227, -0.6415446997, -0.2085718066, -0.0000000000, -0.2954294086, 0.3023743927, 0.3684403896, -0.2577348053, 0.0000000000, -0.0000000000, -0.2172813714, 0.2458033562, 0.1579568982, -0.0000000000, 0.0000000000, -0.0000000000, -0.1892803162, 0.2112764269, 0.0000000000, -0.0000000000, 0.1492363960, -0.4577593803, -0.2311166972, 0.0000000000, -0.1275263876, 0.2296121120, 0.5353974104, -0.4910536110, -0.0000000000, -0.0000000000, -0.2565665841, 0.3052157164, 0.4902714193, -0.3027124703, 0.0000000000, -0.0000000000, -0.4029233158, 0.3594126105, 0.1741376519, -0.1405854225, 0.0000000000, -0.1179050729, -0.4661544561, 0.1635765433, -0.0000000000, 0.0000000000, 0.2332458794, -0.1965985745, -0.0000000000, 0.1930386871, -0.0000000000, 0.0000000000, 0.1970093250, -0.2765654922, -0.1496808380, 0.0000000000, 0.0000000000, 0.2247844785, 0.1655926555, -0.0000000000, -0.0000000000, 0.0000000000, 0.0000000000, -0.1871135235, -0.0000000000, 0.0000000000, -0.0000000000, -0.0000000000, 0.1929262578, -0.0000000000, -0.0000000000, 0.0000000000, 0.0000000000, -0.0000000000, 0.1306269616, 0.0000000000, -0.0000000000, 0.0000000000, -0.1156412438, 0.1442154795, -0.0000000000, -0.0000000000, -0.0000000000, 0.0000000000, -0.2279905975, 0.1713180393, -0.0000000000, 0.0000000000, 0.1596193761, 0.0000000000, 0.0000000000, -0.0000000000, -0.0000000000, 0.0000000000, 0.1648598313, -0.3619607091, 0.0000000000, -0.0000000000, -0.0000000000, 0.1162557155, 0.3277178705, -0.3167047799, 0.0000000000, -0.0000000000, -0.1663770378, 0.3218059242, 0.2003829777, 0.0000000000, 0.0000000000, -0.0000000000, -0.3882677555, 0.2666593790, 0.0000000000, -0.1107772142, -0.0000000000, -0.1175039783, -0.2645888627, 0.2311546504, 0.0000000000, -0.0000000000, 0.2271036059, -0.2153283358, -0.1889767051, 0.1078131646, 0.0000000000, -0.0000000000, 0.1861988306, -0.2142301649, -0.1421331018, -0.0000000000, -0.1047676057, 0.1251079738, 0.1105231047, 0.0000000000, 0.0000000000, -0.0000000000, 0.0000000000, -0.0000000000, -0.0000000000, -0.1202880889, 0.0000000000, -0.0000000000, 0.0000000000, 0.2231430262, -0.0000000000, 0.0000000000, 0.0000000000, -0.0000000000, -0.2113079280, 0.3403108418, -0.0000000000, 0.0000000000, 0.0000000000, -0.1756842136, -0.2848629653, 0.2156150788, -0.0000000000, 0.0000000000, 0.1503647268, -0.2666445374, -0.1760442257, 0.1877734512, -0.0000000000, 0.0000000000, 0.2680306435, -0.1964636743, -0.1253243685, 0.0000000000, -0.0000000000, 0.1468441933, 0.1184974015, 0.0000000000, -0.0000000000, 0.0000000000, -0.2100368589, 0.2833529413, 0.0000000000, 0.0000000000, -0.0000000000, 0.0000000000, -0.2128222138, -0.0000000000, -0.0000000000, -0.0000000000, -0.0000000000, -0.1248280630, 0.0000000000, 0.1207452044, 0.0000000000, 0.0000000000, 0.1301558018, -0.0000000000, 0.0000000000, -0.0000000000, -0.1897570342, 0.1388861388, -0.0000000000, 0.0000000000, 0.0000000000, -0.0000000000, 0.0000000000, -0.0000000000, -0.0000000000, 0.0000000000, 0.0000000000, -0.0000000000, -0.1470284760, 0.2046950161, -0.0000000000, 0.0000000000, 0.2832596898, -0.4599181414, -0.2132370919, 0.1370971501, -0.0000000000, 0.0000000000, 0.3032918870, -0.2585601509, -0.1774012744, 0.2214034498, -0.0000000000, 0.0000000000, 0.3086350560, -0.2004384100, -0.1405368447, -0.0000000000, 0.0000000000, -0.0000000000, -0.0000000000, 0.0000000000, 0.0000000000, -0.0000000000, 0.0000000000, 0.2176004648, -0.0000000000, 0.0000000000, 0.1177191213, -0.2206445038, -0.2126146704, 0.2583966851, -0.0000000000, 0.0000000000, 0.2139749527, -0.1846311241, -0.2370369136, 0.2605683208, -0.0000000000, 0.0000000000, 0.1464954317, -0.3281334639, -0.2960146070, 0.2503232360, 0.0000000000, -0.0000000000, 0.1921069920, -0.0000000000, -0.1419291794, 0.0000000000, 0.1348121017, -0.1541038752, -0.0000000000, 0.0000000000, -0.0000000000, 0.0000000000, 0.0000000000, -0.0000000000, -0.0000000000, 0.0000000000, 0.1359041333, -0.1929480284, 0.0000000000, 0.1360446811, -0.0000000000, 0.0000000000, 0.3628745079, -0.3688465357, -0.1140003279, 0.1069052294, -0.1210084110, 0.0000000000, 0.2923324704, -0.2414333373, -0.1106615216, -0.0000000000, -0.0000000000, -0.0000000000, 0.1217693835, 0.0000000000, -0.0000000000, -0.0000000000, 0.0000000000, -0.0000000000, -0.1252039969, 0.0000000000, 0.0000000000, -0.1776969731, 0.0000000000, -0.0000000000, -0.0000000000, 0.1297245324, 0.1283341348, -0.0000000000, -0.0000000000, 0.0000000000, -0.0000000000, 0.0000000000, 0.1329227686, -0.0000000000, 0.0000000000, 0.0000000000, 0.0000000000, -0.0000000000, -0.0000000000, 0.0000000000, -0.0000000000, 0.0000000000, 0.0000000000, -0.0000000000, -0.0000000000, -0.1331875473, -0.1329897046, -0.0000000000, -0.0000000000, -0.0000000000, 0.2237629145, 0.0000000000, -0.0000000000, 0.0000000000, 0.0000000000, -0.0000000000, 0.1335243881, -0.2639151514, -0.0000000000, 0.0000000000, -0.1374622434, 0.1514586955, 0.2360616773, -0.1556294858, -0.0000000000, 0.0000000000, -0.2148818672, 0.2443434596, 0.0000000000, -0.0000000000, -0.0000000000, 0.0000000000, 0.0000000000, -0.0000000000, 0.0000000000, -0.0000000000, -0.0000000000, -0.2299801707, -0.2386769205, 0.1822422445, -0.0000000000, -0.0000000000, 0.3758203685, -0.2454686612, -0.1324171126, 0.1100005433, 0.0000000000, 0.2022510320, 0.2677307725, -0.1621339917, 0.0000000000, 0.0000000000, -0.3329303265, 0.2840753794, 0.1183011457, 0.0000000000, -0.0000000000, -0.0000000000, -0.4074355364, 0.4173340797, -0.0000000000, 0.0000000000, 0.1611521542, -0.1683423519, -0.1716401279, -0.0000000000, 0.0000000000, -0.0000000000, 0.2331013978, -0.3814851642, -0.1526125371, -0.0000000000, -0.1239120588, 0.1943743527, 0.2530129552, -0.1679947972, -0.0000000000, 0.0000000000, 0.0000000000, -0.0000000000, 0.2342931479, -0.1516530812, -0.0000000000, 0.0000000000, -0.1868192405, 0.2799595296, -0.0000000000, 0.0000000000, -0.0000000000, 0.0000000000, -0.3950166404, 0.4655026793, -0.0000000000, 0.0000000000, 0.2751752436, -0.2031162530, 0.0000000000, 0.0000000000, -0.0000000000, 0.0000000000, 0.1458551586, -0.2266538888, 0.0000000000, -0.0000000000, 0.0000000000, 0.1267150044, 0.2171638310, -0.1664321572, -0.0000000000, -0.0000000000, -0.1646036208, 0.2207912207, -0.0000000000, 0.0000000000, 0.0000000000, -0.0000000000, -0.2487906367, 0.2711336315, -0.0000000000, 0.0000000000, 0.0000000000, -0.1184448525, -0.2037184983, 0.1785132438, -0.0000000000, -0.0000000000, 0.1688056290, -0.2031245232, -0.0000000000, 0.0000000000, -0.1290136278, 0.0000000000, 0.1503379047, 0.0000000000, 0.0000000000, 0.0000000000, 0.0000000000, -0.0000000000, -0.0000000000, -0.0000000000, -0.0000000000, -0.0000000000, -0.1420154274, 0.3853486180, 0.1415310800, 0.0000000000, 0.1238262951, -0.1620543748, -0.3449901342, 0.2194209546, -0.0000000000, 0.0000000000, 0.1467750669, -0.1335392147, -0.3160133362, 0.3700352609, 0.1227745935, -0.1469962001, 0.1826239228, -0.1723365933, -0.2860989273, 0.2231270522, 0.1279785484, -0.1799696535, 0.1577712446, 0.0000000000, -0.2039963603, 0.1939016581, 0.0000000000, -0.0000000000, 0.1363191456, -0.0000000000, -0.0000000000, 0.0000000000, 0.0000000000, -0.1630967110, -0.0000000000, 0.0000000000, -0.0000000000, 0.0000000000, 0.1386876553, -0.0000000000, 0.0000000000, 0.0000000000, 0.0000000000, -0.0000000000, 0.0000000000, -0.0000000000, -0.0000000000, 0.0000000000, 0.0000000000, -0.0000000000, -0.0000000000, 0.0000000000, -0.0000000000, 0.0000000000, 0.0000000000, -0.0000000000, 0.0000000000, 0.0000000000, -0.0000000000, 0.2264020741, 0.0000000000, -0.0000000000, 0.1630199403, -0.2444129884, -0.1742855012, 0.1214240268, -0.0000000000, 0.0000000000, 0.2997335196, -0.3500898778, 0.0000000000, 0.1343063414, 0.0000000000, 0.0000000000, 0.4058985114, -0.3855445981, -0.0991748273, -0.0000000000, 0.0000000000, -0.0000000000, 0.3770014048, -0.5263770223, 0.0000000000, -0.0000000000, -0.0000000000, 0.1561498642, 0.2647673786, -0.1217704341, 0.0000000000, -0.0000000000, -0.1418366879, 0.0000000000, -0.0000000000, 0.0000000000, 0.0000000000, -0.0000000000, -0.0000000000, 0.0000000000, -0.0000000000, 0.1137328371, 0.0000000000, -0.0000000000, 0.1389138848, -0.1486971080, 0.0000000000, -0.0000000000, -0.1003458127, 0.0000000000, -0.0000000000, 0.0000000000, 0.0000000000, -0.0000000000, 0.1600574702, -0.0000000000, -0.0000000000, 0.0000000000, 0.0000000000, -0.1388191283, -0.1646190137, 0.2572606206, -0.0000000000, 0.0000000000, 0.2812618613, -0.4788359702, -0.2363728136, -0.0000000000, -0.2415945083, 0.2204881608, 0.3012141287, -0.2060019821, 0.0000000000, -0.0000000000, -0.1817338914, 0.2257540077, 0.3521111906, -0.3425961435, -0.0000000000, 0.0000000000, -0.3492472768, 0.3877474964, 0.2341624051, -0.0000000000, 0.1141295880, 0.0000000000, -0.2195157409, 0.1739395261, 0.0000000000, -0.1706358790, -0.0000000000, 0.0000000000, -0.2889372706, -0.0000000000, -0.0000000000, 0.1225058734, 0.0977122560, 0.0000000000, 0.0000000000, -0.2327419370, -0.1311679333, 0.0000000000, -0.3907698989, 0.3418820202, 0.3865726292, -0.3836023510, 0.0000000000, -0.0000000000, -0.2378608584, 0.1784583926, 0.3190111518, -0.3521984518, 0.0000000000, -0.0000000000, -0.2071937025, 0.2427600175, 0.2735629976, -0.1604820788, 0.0000000000, -0.0000000000, -0.3103436828, 0.3366815448, -0.0000000000, 0.0000000000, 0.2375741899, -0.3054747880, -0.2148302644, -0.0000000000, -0.1205956042, 0.2067510039, 0.3508675396, -0.2911766171, 0.0000000000, -0.0000000000, -0.2092514932, 0.1915707886, 0.2979010344, -0.4275408387, 0.0000000000, -0.0000000000, -0.1916318834, 0.2428812385, 0.3565438390, -0.2309442759, 0.0000000000, -0.0000000000, -0.1368670315, 0.0000000000, -0.0000000000, 0.0000000000, 0.0000000000, -0.0000000000, 0.0000000000, 0.0000000000, -0.0000000000, 0.3425025940, 0.1110348254, -0.0000000000, 0.1635288149, -0.5491366386, -0.4526938200, 0.1774512529, -0.2075980604, 0.0000000000, 0.3971668184, -0.0000000000, 0.0000000000, 0.2388993800, -0.0000000000, 0.0000000000, 0.0000000000, -0.3619077206, -0.1315803081, -0.0000000000, -0.1621081084, 0.0000000000, 0.0000000000, 0.1004647836, 0.0833115056, -0.0000000000, -0.0000000000, 0.0000000000, 0.0000000000, 0.0000000000, 0.0000000000, -0.0945811421, -0.2482293397, 0.1999041140, -0.0000000000};
#endif

#endif
